tree
version=v4
num_class=1
num_tree_per_iteration=1
label_index=0
max_feature_idx=19
objective=binary sigmoid:1
feature_names=return_90 trix di_minus_14 return_180 sma_200 return_365 return_55 macd_histogram natr cci_20 return_ratio_90_180 return_ratio_90_365 sma_return_ratio trix_direction return_90_direction macd_hist_direction return_90_risk_adj trend_strength natr_trend di_minus_change
feature_infos=[-9.1259800000000002:22.528099999999998] [-0.122417:0.27154499999999998] [7.5655999999999999:37.028300000000002] [2.8673500000000001:38.118699999999997] [800.11300000000006:1115.01] [2.3014999999999999:80.440299999999993] [-12.2774:25.7666] [-19.278300000000002:13.3714] [1.4742999999999999:3.2141099999999998] [-312.36500000000001:255.70599999999999] [-1.7822914250107251:4.260064428805542] [-1.9489194225855211:0.81590065943259427] [-0.010892894643428328:0.020713254121718056] [-1:1] [-1:1] [-1:1] [-4.5335677008535997:10.652915854616932] [-1:3] [-0.12320351402777208:0.41881561796174105] [-0.47298760065710999:1.8888576365170571]
tree_sizes=1373 1264 1162 1264 1378 1181 1287 1285 1275 1275 1279 1185 1175 1177 1177 1278 1176

Tree=0
num_leaves=12
num_cat=0
split_feature=7 0 7 7 9 3 8 7 11 11 5
split_gain=34.3894 28.3207 15.6406 10.0592 8.14312 8.02441 7.09078 5.78896 5.32372 4.1204 0.0553548
threshold=3.1340250000000007 11.941750000000001 0.071780500000000011 -3.0835049999999997 -34.212049999999998 23.360200000000003 2.1887000000000003 -5.3905599999999998 0.13966686171260512 0.1835939976957445 30.097050000000007
decision_type=2 2 2 2 2 2 2 2 2 2 2
left_child=1 3 4 7 -3 8 9 -1 10 -2 -5
right_child=6 2 -4 5 -6 -7 -8 -9 -10 -11 -12
leaf_value=0.044146469107813981 -0.041879206492392143 -0.017064965872615079 0.038208441734060794 0.10000008854429501 -0.099999929462926504 0.018561209731726893 0.00018175963266893913 -0.027104398579311205 0.0518571652808252 -0.099999931086316066 0.094063591333297752
leaf_weight=6.3106981962919235 6.5213717073202151 6.3982372432947168 7.1303190588951102 8.3385891914367694 5.5074256807565698 7.0331566333770743 5.2967521101236335 5.1995896100997907 10.982154697179793 5.7277226150035858 7.4218071550130835
leaf_count=20 26 24 23 22 25 24 19 20 34 26 20
internal_value=0.0138917 0.0308169 -0.0203556 0.0523273 -0.0554297 0.0660838 -0.0481549 0.01196 0.0785821 -0.0690567 0.0972045
internal_weight=81.8678 64.322 19.036 45.286 11.9057 33.7757 17.5458 11.5103 26.7426 12.2491 15.7604
internal_count=283 212 72 140 49 100 71 40 76 52 42
is_linear=0
shrinkage=1


Tree=1
num_leaves=11
num_cat=0
split_feature=7 1 8 1 4 6 2 10 4 2
split_gain=31.4648 38.8986 13.8567 9.52855 8.34139 7.67023 6.06735 3.69765 5.90885 2.30812
threshold=3.3961550000000007 0.10423450000000002 2.2895550000000005 0.1770825 817.08950000000016 11.705350000000001 15.484700000000002 0.25823930243885401 922.89100000000019 16.957350000000002
decision_type=2 2 2 2 2 2 2 2 2 2
left_child=1 4 3 -3 -1 -5 -2 9 -9 -6
right_child=6 2 -4 5 7 -7 -8 8 -10 -11
leaf_value=-0.003819278146515065 -0.096234912507733403 -0.081046765082338379 0.034141563079977788 0.027900156224945474 0.057001251914419106 -0.054617351039829176 -0.02784952279003617 0.084409762787736972 0.021249515290817683 0.093066052153338241
leaf_weight=4.6968687474727622 5.7172463834285718 8.4618687778711372 8.9238089621067029 5.9910748749971372 6.6171986907720592 5.3140802532434464 7.4962251633405685 6.5009488165378562 8.6038972139358503 13.461421087384222
leaf_count=17 26 37 29 20 20 22 29 18 29 36
internal_value=0.0132107 0.0268247 -0.0175744 -0.0409215 0.0587664 -0.0108879 -0.0574387 0.0671214 0.0484329 0.0811804
internal_weight=81.7846 68.5712 28.6908 19.767 39.8803 11.3052 13.2135 35.1835 15.1048 20.0786
internal_count=283 228 108 79 120 42 55 103 47 56
is_linear=0
shrinkage=0.05


Tree=2
num_leaves=10
num_cat=0
split_feature=7 1 8 1 9 4 2 9 5
split_gain=28.4791 35.2276 12.5251 8.63219 11.3801 7.57618 5.25567 4.11397 1.85492
threshold=3.3961550000000007 0.10423450000000002 2.2895550000000005 0.1770825 -34.212049999999998 817.08950000000016 16.670000000000005 80.312600000000018 35.510000000000005
decision_type=2 2 2 2 2 2 2 2 2
left_child=1 5 3 -3 -5 -1 -2 8 -7
right_child=6 2 -4 4 -6 7 -8 -9 -10
leaf_value=-0.003628239630195824 -0.082717790490897974 -0.077194166449726223 0.03246368289955362 0.035538985575730368 -0.065241553889588702 0.08674752984859245 -0.019094167384732647 0.036210888238967585 0.059585388723128345
leaf_weight=4.6969670355319968 7.3799596279859525 8.4404159933328682 8.9159663766622526 6.1511564701795596 5.1432866156101191 13.998945713043215 5.7943692952394485 9.6552976667880994 11.407240256667135
leaf_count=17 33 37 29 20 22 38 22 31 34
internal_value=0.0125824 0.0255464 -0.0167205 -0.0389413 -0.0103547 0.0560048 -0.0547347 0.0639935 0.0745519
internal_weight=81.5836 68.4093 28.6508 19.7349 11.2944 39.7585 13.1743 35.0615 25.4062
internal_count=283 228 108 79 42 120 55 103 72
is_linear=0
shrinkage=0.05


Tree=3
num_leaves=11
num_cat=0
split_feature=7 1 8 1 9 8 3 10 8 11
split_gain=25.9878 37.0367 10.2625 9.20088 10.3096 6.07278 5.60798 3.4624 6.17642 3.2281
threshold=3.1340250000000007 0.10423450000000002 2.2895550000000005 0.1770825 -34.212049999999998 2.1887000000000003 23.360200000000003 0.13705368302281792 1.9533300000000002 0.1835939976957445
decision_type=2 2 2 2 2 2 2 2 2 2
left_child=1 6 3 -3 -5 9 7 -1 -9 -2
right_child=5 2 -4 4 -6 -7 -8 8 -10 -11
leaf_value=0.086371806136701756 -0.037596184079790998 -0.081721878170877893 0.027957975171037382 0.033772996251668332 -0.062281459019363078 0.0025810738186053546 0.014554272228142928 0.077654111629214373 0.015869977301364854 -0.089318349463762103
leaf_weight=14.040924996137621 6.491484537720682 7.3669687360525193 8.5251058489084226 6.1491945236921337 5.11893910169601 5.2871606647968283 5.8253165334463111 10.029064387083055 6.7793856561183921 5.6357270926237106
leaf_count=38 26 33 28 20 22 19 20 28 23 26
internal_value=0.0120037 0.0267733 -0.0174828 -0.0382708 -0.00986306 -0.0421366 0.0595482 0.0680444 0.0527346 -0.0616324
internal_weight=81.2493 63.8349 27.1602 18.6351 11.2681 17.4144 36.6747 30.8494 16.8085 12.1272
internal_count=283 212 103 75 42 71 109 89 51 52
is_linear=0
shrinkage=0.05


Tree=4
num_leaves=12
num_cat=0
split_feature=7 1 8 9 6 8 9 6 8 5 6
split_gain=23.7763 29.0047 10.3232 7.15346 5.31316 5.09718 3.79631 2.42597 2.01368 1.72228 1.20921
threshold=3.3961550000000007 0.10423450000000002 2.2895550000000005 -34.212049999999998 -8.0211599999999983 2.1887000000000003 28.045150000000003 14.268350000000002 1.8247150000000001 37.601700000000008 6.4887300000000012
decision_type=2 2 2 2 2 2 2 2 2 2 2
left_child=1 4 3 -3 -1 10 9 -5 -8 -6 -2
right_child=5 2 -4 7 6 -7 8 -9 -10 -11 -12
leaf_value=0.0034574246162560815 -0.088777055078217967 -0.0051395083073965111 0.029587255902037368 -0.088053821321770517 0.086555701305173538 -0.0041379427717830207 0.055357397411851243 -0.037978274965644349 0.018871337928347384 0.055894494429601455 -0.05193611895314091
leaf_weight=5.073970451951026 4.7525988519191724 9.7713678181171453 8.8898194432258588 5.4002696871757507 10.711710900068285 4.0914728790521613 8.9813198894262296 4.3806340396404266 6.5318426936864844 8.0009310543537122 4.1917669773101807
leaf_count=18 22 36 29 25 29 15 27 18 22 24 18
internal_value=0.0114725 0.0233722 -0.015086 -0.0353976 0.0512053 -0.0503655 0.0582839 -0.0656262 0.0399949 0.0734459 -0.0715116
internal_weight=80.7777 67.7419 28.4421 19.5523 39.2998 13.0358 34.2258 9.7809 15.5132 18.7126 8.94437
internal_count=283 228 108 79 120 55 102 43 49 53 40
is_linear=0
shrinkage=0.05


Tree=5
num_leaves=10
num_cat=0
split_feature=10 18 3 16 8 4 4 6 3
split_gain=22.1021 21.0644 11.5922 10.3191 10.1113 6.40052 6.53022 3.17392 0.729525
threshold=0.15497035968462761 -0.062066599443803709 20.174550000000004 7.6563235581226303 1.8172050000000002 1047.5350000000001 1007.8750000000001 9.4254300000000004 15.951800000000002
decision_type=2 2 2 2 2 2 2 2 2
left_child=2 -2 8 4 -3 6 -6 -5 -1
right_child=1 3 -4 7 5 -7 -8 -9 -10
leaf_value=0.064352305063138437 0.053544406192961747 0.03061195960353737 0.0083249959054955604 -0.034343398366267014 -0.02628741202545818 0.0042393219723744326 -0.10061855140417462 -0.086755423364542103 0.086293705905178694
leaf_weight=7.4547484815120715 10.988800585269926 10.692607909440992 11.142650097608565 5.1141244620084745 9.2214235067367571 9.0194117426872236 4.3480022549629203 6.6373767852783203 7.7027648389339447
leaf_count=22 34 36 39 21 36 32 20 31 21
internal_value=0.00922935 -0.00852196 0.0470413 -0.0236672 -0.00944488 -0.0284061 -0.0501051 -0.0639463 0.0755025
internal_weight=82.3219 56.0217 26.3002 45.0329 33.2814 22.5888 13.5694 11.7515 15.1575
internal_count=292 210 82 176 124 88 56 52 43
is_linear=0
shrinkage=0.05


Tree=6
num_leaves=11
num_cat=0
split_feature=7 10 1 2 6 9 8 19 19 6
split_gain=22.4992 23.1302 11.5308 10.5826 10.9517 5.83949 7.63425 5.06003 6.88577 2.43938
threshold=3.3961550000000007 0.31326393205887931 0.093015000000000014 14.298300000000003 14.268350000000002 -58.760499999999993 1.9874500000000002 0.1061117101506648 -0.049864203656506838 5.5210350000000004
decision_type=2 2 2 2 2 2 2 2 2 2
left_child=1 7 -3 -4 5 6 -5 8 -1 -2
right_child=9 2 3 4 -6 -7 -8 -9 -10 -11
leaf_value=0.057432646903188257 -0.074994312286427958 0.038139867570606723 -0.088740762779603674 0.028251489006677195 0.048673339946653134 -0.074744676261123077 -0.056325318839075593 0.076412204214342375 -0.0046625968995172799 -0.031165245511515373
leaf_weight=12.642786234617235 6.1385239064693433 10.375340238213537 5.1004326939582851 5.9416137337684614 6.0169419795274726 5.0805375576019314 4.8427851051092148 12.327668964862822 6.9017267078161266 6.575040802359581
leaf_count=38 28 33 24 20 19 23 20 35 25 27
internal_value=0.00881039 0.0200379 -0.00665707 -0.0238826 -0.00876481 -0.0305488 -0.00972813 0.0513273 0.035505 -0.0523273
internal_weight=81.9434 69.2298 37.3577 26.9823 21.8819 15.8649 10.7844 31.8722 19.5445 12.7136
internal_count=292 237 139 106 82 63 40 98 63 55
is_linear=0
shrinkage=0.05


Tree=7
num_leaves=11
num_cat=0
split_feature=7 10 18 3 19 19 8 8 6 2
split_gain=20.4708 21.0831 24.5244 9.23579 4.71286 6.29749 4.60251 4.84964 2.2669 0.678076
threshold=3.3961550000000007 0.31326393205887931 -0.062066599443803709 9.1726700000000019 0.1061117101506648 -0.049864203656506838 2.2895550000000005 1.7802950000000002 5.5210350000000004 18.448100000000004
decision_type=2 2 2 2 2 2 2 2 2 2
left_child=1 4 -3 -4 5 -1 7 -5 -2 -9
right_child=8 2 3 6 -6 -7 -8 9 -10 -11
leaf_value=0.055035344779161159 -0.072173329666109953 0.069526960709900706 0.018331327287170327 -0.021550223776470617 0.073598039548288849 -0.0044271310445809292 -0.0085825350803557712 -0.068149791380386682 -0.029739287180650754 -0.094547483355904238
leaf_weight=12.536512300372125 6.0614680796861631 8.2759914696216565 7.8152043521404293 5.2731751501560238 12.163222491741179 6.905274078249934 6.0738798081874839 4.9636379927396757 6.5465241223573685 4.7709270417690277
leaf_count=38 28 24 27 21 35 25 22 23 27 22
internal_value=0.00842843 0.0191649 -0.00636083 -0.0280949 0.0491875 0.0339156 -0.0453057 -0.0601682 -0.05014 -0.0810873
internal_weight=81.3858 68.7778 37.1728 28.8968 31.605 19.4418 21.0816 15.0077 12.608 9.73457
internal_count=292 237 139 115 98 63 88 66 55 45
is_linear=0
shrinkage=0.05


Tree=8
num_leaves=11
num_cat=0
split_feature=7 1 10 8 7 8 7 6 10 19
split_gain=18.6458 19.3963 7.72181 9.59113 7.0718 6.57892 5.12028 2.11795 1.92649 0.411947
threshold=3.3961550000000007 0.097385000000000013 0.35919063523850675 2.1454850000000003 1.4675750000000003 1.9387950000000003 -2.5444899999999997 5.5210350000000004 0.13705368302281792 0.1061117101506648
decision_type=2 2 2 2 2 2 2 2 2 2
left_child=1 4 -3 6 8 -6 -4 -2 9 -1
right_child=7 2 3 -5 5 -7 -8 -9 -10 -11
leaf_value=0.062800167080082486 -0.069603911507635771 0.039330767605043816 -0.017844017314648575 0.017984421828473839 0.042594652992184831 -0.02803987999554269 -0.074447730299387255 -0.028385424612764578 0.042379467860827608 0.080128353433320379
leaf_weight=6.7073742896318453 5.9731950908899289 6.2011231034994152 7.9433002769947061 9.1033633053302747 8.2703753858804685 5.4814517945051184 8.0382751822471619 6.516599178314209 9.5081020444631559 7.0191124826669693
leaf_count=20 28 20 31 31 26 21 38 27 30 20
internal_value=0.00807165 0.0183473 -0.0106296 -0.02298 0.0428584 0.0144399 -0.0463141 -0.048098 0.0596784 0.071661
internal_weight=80.7623 68.2725 31.2861 25.0849 36.9864 13.7518 15.9816 12.4898 23.2346 13.7265
internal_count=292 237 120 100 117 47 69 55 70 40
is_linear=0
shrinkage=0.05


Tree=9
num_leaves=11
num_cat=0
split_feature=0 6 9 8 2 8 1 3 3 18
split_gain=15.6443 13.1926 9.13306 8.28837 6.66129 8.8771 6.62195 3.731 1.89666 0.344772
threshold=11.513100000000001 16.283400000000004 64.541750000000022 1.8949350000000003 15.156550000000001 1.8429700000000002 0.11603200000000001 20.055800000000005 10.212250000000003 -1.0000000180025095e-35
decision_type=2 2 2 2 2 2 2 2 2 2
left_child=2 4 6 -4 -2 -6 7 8 -1 -10
right_child=1 -3 3 -5 5 -7 -8 -9 9 -11
leaf_value=0.039013610230497389 -0.080210025038196686 0.047979060883269899 0.021224793681570694 -0.051521297989618811 0.022961149852882737 -0.059920653203695197 -0.00047645260966539438 0.016073021740940309 0.076704536331657067 0.060868872700622405
leaf_weight=8.2861249744892174 7.4457788020372453 5.0171066820621482 9.5100097954273242 6.655959725379943 6.108688145875929 6.8572109639644623 9.3798926025629026 7.0177890211343756 7.3270173221826562 6.4743053764104816
leaf_count=27 37 16 33 28 22 30 34 24 21 20
internal_value=0.00773586 -0.0246624 0.0228106 -0.00872671 -0.0425174 -0.0208721 0.0360581 0.0478322 0.057923 0.0692759
internal_weight=80.0799 25.4288 54.6511 16.166 20.4117 12.9659 38.4851 29.1052 22.0874 13.8013
internal_count=292 105 187 61 89 52 126 92 68 41
is_linear=0
shrinkage=0.05


Tree=10
num_leaves=11
num_cat=0
split_feature=2 12 16 10 3 6 3 4 1 10
split_gain=15.3193 8.57727 7.86562 13.8499 9.79338 7.50025 7.24321 7.20126 4.62237 3.85601
threshold=14.298300000000003 0.01284149509631928 0.93532800482451417 0.51886478018674931 21.380450000000007 13.886800000000003 10.498650000000001 942.97300000000007 0.11603200000000001 0.72176933466692128
decision_type=2 2 2 2 2 2 2 2 2 2
left_child=1 -1 4 7 -2 6 -5 -4 -9 -8
right_child=2 -3 3 5 -6 -7 9 8 -10 -11
leaf_value=0.0053660133601801307 0.072168655461991929 -0.078891399113657681 0.019923158654358356 0.045507254808700041 -0.0034391306149388202 0.08058786969313704 0.018648834598998253 -0.01990557724644601 -0.082540796556171026 -0.039423121036496887
leaf_weight=5.5645115524530393 13.072180777788164 6.6065397262573242 5.9544105976820019 11.743174344301229 6.3699373155832282 6.0146326422691336 5.7144599854946119 6.7176395803689939 5.2456907778978348 5.7197283208370209
leaf_count=20 39 33 21 38 23 17 20 26 24 24
internal_value=0.0112073 -0.0403696 0.0206397 0.00959702 0.0473968 0.0308367 0.017926 -0.0250071 -0.0473699 -0.0104005
internal_weight=78.7229 12.1711 66.5519 47.1097 19.4421 29.192 23.1774 17.9177 11.9633 11.4342
internal_count=285 53 232 170 62 99 82 71 50 44
is_linear=0
shrinkage=0.05


Tree=11
num_leaves=10
num_cat=0
split_feature=2 16 16 18 4 8 3 18 18
split_gain=13.9738 7.62409 7.27397 13.3389 13.3757 11.6866 9.15452 5.19691 4.97869
threshold=14.298300000000003 6.5929543446999759 0.93532800482451417 0.020956782877901373 942.97300000000007 2.2802500000000001 21.380450000000007 -0.067867838170721326 -0.013177600699447399
decision_type=2 2 2 2 2 2 2 2 2
left_child=1 -1 6 5 -5 7 -2 -4 -9
right_child=2 -3 3 4 -6 -7 -8 8 -10
leaf_value=0.0027759801117321547 0.070086252582851394 -0.076960367183763825 0.043660421650807996 0.021478658302951779 -0.070468617110512485 0.071577959327322388 -0.0032662183071666216 -0.035915809578813067 0.023931897303455851
leaf_weight=5.7395371049642545 12.794598683714868 6.2759648412466049 6.4702785313129416 7.3405389487743369 8.576694726943968 10.35994032025337 6.3717568367719641 8.1503966897726041 6.0579272061586442
leaf_count=21 39 32 21 26 38 30 23 34 21
internal_value=0.0107299 -0.0388721 0.0197435 0.00914829 -0.0280654 0.0282323 0.0457006 0.00651614 -0.0103989
internal_weight=78.1376 12.0155 66.1221 46.9558 15.9172 31.0385 19.1664 20.6786 14.2083
internal_count=285 53 232 170 64 106 62 76 55
is_linear=0
shrinkage=0.05


Tree=12
num_leaves=10
num_cat=0
split_feature=2 12 16 18 8 8 3 19 1
split_gain=12.7542 7.52765 6.73373 12.0906 12.2721 10.6569 8.57787 4.9421 6.06034
threshold=14.298300000000003 0.01284149509631928 0.93532800482451417 0.020956782877901373 1.9874500000000002 2.2802500000000001 21.380450000000007 -0.12523640819109486 0.10423450000000002
decision_type=2 2 2 2 2 2 2 2 2
left_child=1 -1 6 5 -5 7 -2 -4 -9
right_child=2 -3 3 4 -6 -7 -8 8 -10
leaf_value=0.004963830387117351 0.068170120123329514 -0.074865168366990129 0.0393368040840388 0.01883376716942416 -0.069141052742571471 0.068532706412431713 -0.0031020582400926883 0.018389488394784981 -0.04942702161884182
leaf_weight=5.5592143237590772 12.503906011581423 6.2993804812431335 7.2821093052625665 7.6531430929899207 8.2236776053905469 10.281219154596327 6.3734518885612479 7.3798838853836095 5.9506391584873199
leaf_count=20 39 33 24 28 36 30 23 26 26
internal_value=0.0102804 -0.037442 0.018901 0.00872744 -0.0267343 0.0269518 0.0441069 0.00621196 -0.0118833
internal_weight=77.5066 11.8586 65.648 46.7707 15.8768 30.8939 18.8774 20.6126 13.3305
internal_count=285 53 232 170 64 106 62 76 52
is_linear=0
shrinkage=0.05


Tree=13
num_leaves=10
num_cat=0
split_feature=3 7 1 4 9 1 4 19 19
split_gain=12.0574 8.88374 17.3432 9.6262 8.17359 4.93007 3.09933 1.97412 3.24116
threshold=30.757300000000004 3.1340250000000007 0.11603200000000001 1067.2450000000001 -24.310599999999997 0.050443500000000009 1016.5450000000002 0.1061117101506648 -0.13959127139717456
decision_type=2 2 2 2 2 2 2 2 2
left_child=1 2 6 4 -4 -3 7 8 -1
right_child=-2 5 3 -5 -6 -7 -8 -9 -10
leaf_value=0.069867436517740938 -0.060117155191006091 -0.045831975290103549 -0.0038297055064461997 0.034417715292271937 -0.078888627709016293 0.018125603812816832 0.021076050880744657 0.076462081080881594 0.027229426480155163
leaf_weight=7.9960052967071524 5.6990695744752875 8.1087405532598478 9.3954353481531125 8.1679276227951032 5.9075473248958614 4.7946978956460944 9.0547982305288297 7.6086666733026496 10.070335134863859
leaf_count=24 27 35 35 27 30 18 32 23 34
internal_value=0.00985949 0.0154682 0.0237898 -0.00941159 -0.0328054 -0.0220664 0.0462278 0.0550981 0.0461006
internal_weight=76.8032 71.1042 58.2007 23.4709 15.303 12.9034 34.7298 25.675 18.0663
internal_count=285 258 205 92 65 53 113 81 58
is_linear=0
shrinkage=0.05


Tree=14
num_leaves=10
num_cat=0
split_feature=2 12 16 10 3 18 18 7 0
split_gain=11.3863 6.64913 5.9897 10.9551 7.8935 7.01585 5.73303 2.88648 4.65864
threshold=14.298300000000003 0.01284149509631928 0.93532800482451417 0.51886478018674931 21.380450000000007 0.020184938615717355 -0.067867838170721326 0.44139200000000006 12.404350000000003
decision_type=2 2 2 2 2 2 2 2 2
left_child=1 -1 4 5 -2 -4 -5 8 -8
right_child=2 -3 3 6 -6 -7 7 -9 -10
leaf_value=0.0034672842405629304 0.065646358464775525 -0.072545609288735463 0.0029675232152140715 0.065420793292109175 -0.0032982377496509358 -0.061328998561741302 0.02476527345373496 0.038331813945680068 -0.034792843552561285
leaf_weight=5.497998431324957 12.001945927739145 6.0347311496734619 10.518681794404985 7.289528593420985 6.3469979465007773 7.1109475493431082 7.9289859384298342 7.77408742904663 5.6038847118616104
leaf_count=20 39 33 39 22 23 32 27 26 24
internal_value=0.00945497 -0.036308 0.017628 0.00803393 0.0417981 -0.0229666 0.0271456 0.014051 0.000102596
internal_weight=76.1078 11.5327 64.5751 46.2261 18.3489 17.6296 28.5965 21.307 13.5329
internal_count=285 53 232 170 62 71 99 77 51
is_linear=0
shrinkage=0.05


Tree=15
num_leaves=11
num_cat=0
split_feature=2 0 11 9 19 4 7 3 2 4
split_gain=16.488 6.00714 7.93782 7.67629 8.89094 6.08286 5.65149 5.91459 1.87025 1.06439
threshold=14.298300000000003 11.513100000000001 0.40602482898943637 64.541750000000022 -0.18798333175091755 969.91150000000005 -3.0835049999999997 20.055800000000005 12.416950000000002 1016.5450000000002
decision_type=2 2 2 2 2 2 2 2 2 2
left_child=8 3 5 6 -5 -3 -2 9 -1 -8
right_child=1 2 -4 4 -6 -7 7 -9 -10 -11
leaf_value=-0.035033788906042536 0.00048749243103800511 -0.0056718102526338915 0.023499511151840319 0.033552220129431001 -0.053191506102668679 -0.084372308645598332 0.072026604402212216 0.0059832836344978803 -0.076820029118092575 0.046744670370610857
leaf_weight=5.5681740045547468 9.0098190456628746 5.221685007214548 8.3879359066486341 5.5423023849725723 6.3254029005765897 4.6342682242393494 10.577047705650338 6.4327751398086539 5.1585344970226288 6.8653521686792365
leaf_count=25 33 21 30 19 27 23 33 23 28 23
internal_value=0.0021739 0.0119311 -0.0122511 0.0217892 -0.0126816 -0.0426768 0.0342293 0.0469624 -0.055129 0.0620756
internal_weight=73.7233 62.9966 18.2439 44.7527 11.8677 9.85595 32.885 23.8752 10.7267 17.4424
internal_count=285 232 74 158 46 44 112 79 53 56
is_linear=0
shrinkage=0.05


Tree=16
num_leaves=10
num_cat=0
split_feature=2 16 4 18 4 8 4 9 7
split_gain=15.0892 5.23974 7.77774 7.25548 7.58822 6.02783 5.16742 2.7906 1.88981
threshold=14.298300000000003 0.93532800482451417 834.18300000000011 0.020956782877901373 942.97300000000007 2.2895550000000005 969.91150000000005 18.983400000000003 3.1340250000000007
decision_type=2 2 2 2 2 2 2 2 2
left_child=8 2 -2 5 -5 6 7 -3 -1
right_child=1 3 -4 4 -6 -7 -8 -9 -10
leaf_value=-0.03487174455729012 -0.0039239061784659439 0.042769799568965199 0.062795006810817025 0.011224906964145267 -0.060546719739798353 0.052430791458275963 -0.026697337690714324 -0.0050603770736007752 -0.077592460190537449
leaf_weight=6.0503280758857709 7.6198972314596203 7.3993819653987938 10.235891580581663 7.0255722850561124 7.7400792390108109 8.3752485960721952 8.9143945127725583 5.1874719858169556 4.524592250585556
leaf_count=29 28 25 35 26 35 26 37 20 24
internal_value=0.00208529 0.0114314 0.0343229 0.00227531 -0.0263974 0.016446 0.00242911 0.0230574 -0.0531503
internal_weight=73.0729 62.4979 17.8558 44.6421 14.7657 29.8765 21.5012 12.5869 10.5749
internal_count=285 232 63 169 61 108 82 45 53
is_linear=0
shrinkage=0.05


end of trees

feature_importances:
natr=21
macd_histogram=17
trix=14
return_180=14
sma_200=14
di_minus_14=13
return_55=11
cci_20=11
return_ratio_90_180=10
natr_trend=10
di_minus_change=9
return_90_risk_adj=7
return_90=4
return_ratio_90_365=4
return_365=3
sma_return_ratio=3

parameters:
[boosting: gbdt]
[objective: binary]
[metric: auc]
[tree_learner: serial]
[device_type: gpu]
[data_sample_strategy: bagging]
[data: ]
[valid: ]
[num_iterations: 1000]
[learning_rate: 0.05]
[num_leaves: 31]
[num_threads: 0]
[seed: 0]
[deterministic: 0]
[force_col_wise: 1]
[force_row_wise: 0]
[histogram_pool_size: -1]
[max_depth: -1]
[min_data_in_leaf: 20]
[min_sum_hessian_in_leaf: 0.001]
[bagging_fraction: 0.8]
[pos_bagging_fraction: 1]
[neg_bagging_fraction: 1]
[bagging_freq: 5]
[bagging_seed: 3]
[bagging_by_query: 0]
[feature_fraction: 0.9]
[feature_fraction_bynode: 1]
[feature_fraction_seed: 2]
[extra_trees: 0]
[extra_seed: 6]
[early_stopping_round: 0]
[early_stopping_min_delta: 0]
[first_metric_only: 0]
[max_delta_step: 0]
[lambda_l1: 0]
[lambda_l2: 0]
[linear_lambda: 0]
[min_gain_to_split: 0]
[drop_rate: 0.1]
[max_drop: 50]
[skip_drop: 0.5]
[xgboost_dart_mode: 0]
[uniform_drop: 0]
[drop_seed: 4]
[top_rate: 0.2]
[other_rate: 0.1]
[min_data_per_group: 100]
[max_cat_threshold: 32]
[cat_l2: 10]
[cat_smooth: 10]
[max_cat_to_onehot: 4]
[top_k: 20]
[monotone_constraints: ]
[monotone_constraints_method: basic]
[monotone_penalty: 0]
[feature_contri: ]
[forcedsplits_filename: ]
[refit_decay_rate: 0.9]
[cegb_tradeoff: 1]
[cegb_penalty_split: 0]
[cegb_penalty_feature_lazy: ]
[cegb_penalty_feature_coupled: ]
[path_smooth: 0]
[interaction_constraints: ]
[verbosity: -1]
[saved_feature_importance_type: 0]
[use_quantized_grad: 0]
[num_grad_quant_bins: 4]
[quant_train_renew_leaf: 0]
[stochastic_rounding: 1]
[linear_tree: 0]
[max_bin: 255]
[max_bin_by_feature: ]
[min_data_in_bin: 3]
[bin_construct_sample_cnt: 200000]
[data_random_seed: 1]
[is_enable_sparse: 1]
[enable_bundle: 1]
[use_missing: 1]
[zero_as_missing: 0]
[feature_pre_filter: 1]
[pre_partition: 0]
[two_round: 0]
[header: 0]
[label_column: ]
[weight_column: ]
[group_column: ]
[ignore_column: ]
[categorical_feature: ]
[forcedbins_filename: ]
[precise_float_parser: 0]
[parser_config_file: ]
[objective_seed: 5]
[num_class: 1]
[is_unbalance: 0]
[scale_pos_weight: 1.31169]
[sigmoid: 1]
[boost_from_average: 1]
[reg_sqrt: 0]
[alpha: 0.9]
[fair_c: 1]
[poisson_max_delta_step: 0.7]
[tweedie_variance_power: 1.5]
[lambdarank_truncation_level: 30]
[lambdarank_norm: 1]
[label_gain: ]
[lambdarank_position_bias_regularization: 0]
[eval_at: ]
[multi_error_top_k: 1]
[auc_mu_weights: ]
[num_machines: 1]
[local_listen_port: 12400]
[time_out: 120]
[machine_list_filename: ]
[machines: ]
[gpu_platform_id: 0]
[gpu_device_id: 0]
[gpu_use_dp: 0]
[num_gpu: 1]

end of parameters

pandas_categorical:[]
