tree
version=v4
num_class=1
num_tree_per_iteration=1
label_index=0
max_feature_idx=19
objective=binary sigmoid:1
feature_names=return_90 trix di_minus_14 return_180 sma_200 return_365 return_55 macd_histogram natr cci_20 return_ratio_90_180 return_ratio_90_365 sma_return_ratio trix_direction return_90_direction macd_hist_direction return_90_risk_adj trend_strength natr_trend di_minus_change
feature_infos=[-9.3017699999999994:47.501399999999997] [-0.087531999999999999:0.42849199999999998] [4.2127400000000002:32.146000000000001] [3.1064500000000002:64.748800000000003] [944.28399999999999:1388.1199999999999] [15.678699999999999:83.345699999999994] [-9.9432200000000002:30.3169] [-14.294499999999999:11.9139] [1.41289:2.7820200000000002] [-277.27499999999998:321.154] [-1.4257810979131065:3.6057006441793331] [-0.38865549159094931:1.0300442298935319] [-0.0098344947354923919:0.039594728605227399] [-1:1] [-1:1] [-1:1] [-5.3864568548730345:25.087340983954608] [-1:3] [-0.16177815324935862:0.21246603059908398] [-0.43126938273728521:1.7686044870609887]
tree_sizes=1173 1169 1181 1293 1304 1289 1283 1288 1285 1270 1380 1380 1283 1273 1172 1289 1291 1289 1283 1175 1290 1279 1284 1288 1195 1176 1283 1287 1285 1383 1285 1290 1281 1180 1282 1283 1284 1269 1174

Tree=0
num_leaves=10
num_cat=0
split_feature=18 18 3 4 0 4 10 8 2
split_gain=12.8678 8.55667 10.2217 10.8918 8.92309 8.99724 8.33259 4.4544 1.8925
threshold=0.11628612643093451 -0.0012887753779264319 9.3751400000000018 1074.8450000000003 16.331900000000001 982.52700000000016 0.67509980200199371 1.7424550000000003 11.918900000000002
decision_type=2 2 2 2 2 2 2 2 2
left_child=1 4 -3 8 5 -1 -6 -7 -4
right_child=-2 2 3 -5 6 7 -8 -9 -10
leaf_value=-0.0063465803496597032 0.083881810143497604 0.034943329890907808 -0.087065981886996713 0.0050450889458986629 0.02066990802489363 0.074148022470145111 -0.061267496174738159 0.020669909069385425 -0.046824616268270648
leaf_weight=8.0880365967750567 5.6172858774662009 7.6544480919837978 5.3240352869033831 10.488618433475493 7.4185396432876569 12.257931351661684 5.3335922956466675 5.7065689563751212 6.4749060571193695
leaf_count=30 17 26 23 38 26 38 22 20 26
internal_value=0.0111201 0.00517479 -0.0149068 -0.0320273 0.0206699 0.0374445 -0.0136005 0.0571603 -0.0649827
internal_weight=74.364 68.7467 29.942 22.2876 38.8047 26.0525 12.7521 17.9645 11.7989
internal_count=266 249 113 87 136 88 48 58 49
is_linear=0
shrinkage=1


Tree=1
num_leaves=10
num_cat=0
split_feature=11 3 4 4 3 4 1 2 1
split_gain=10.4316 10.4369 10.2071 6.77106 11.723 7.84392 18.821 4.46029 3.92396
threshold=0.50904240901730258 13.345550000000001 972.32800000000009 1258.7750000000003 33.852200000000003 1074.8450000000003 0.10651400000000001 10.113800000000001 -0.0086174999999999984
decision_type=2 2 2 2 2 2 2 2 2
left_child=2 -2 -1 5 -5 6 8 -7 -4
right_child=1 -3 3 4 -6 7 -8 -9 -10
leaf_value=-0.026976354088986715 0.016537304435757742 -0.064787714898562568 0.016139257763503834 0.039550110673303371 -0.060525858538415557 0.041956399067579864 -0.060278104614103649 0.09825393124951165 0.065058561825702702
leaf_weight=9.5514975190162641 7.6355307996273032 8.1626336872577649 6.5009381026029578 6.8540535420179349 5.106458455324173 7.1983263492584211 5.3277052491903296 6.8817048668861389 11.095900699496275
leaf_count=37 27 34 23 23 21 24 22 20 35
internal_value=0.0105713 -0.0254819 0.0203049 0.0295279 -0.00317664 0.0400986 0.0220576 0.0694722 0.0469859
internal_weight=74.3147 15.7982 58.5166 48.9651 11.9605 37.0046 22.9245 14.08 17.5968
internal_count=266 61 205 168 44 124 80 44 58
is_linear=0
shrinkage=0.05


Tree=2
num_leaves=10
num_cat=0
split_feature=18 16 4 4 10 2 4 4 10
split_gain=11.0274 8.55325 12.2254 12.4523 17.0589 9.20528 5.86426 6.51512 2.14882
threshold=0.11628612643093451 -3.064523583716054 980.86900000000014 1001.3250000000002 0.67509980200199371 16.370900000000002 1230.7400000000002 1074.8450000000003 0.54743345788062503
decision_type=2 2 2 2 2 2 2 2 2
left_child=1 -1 -3 -4 6 -6 7 -5 -9
right_child=-2 2 3 4 5 -7 -8 8 -10
leaf_value=0.061855217878629701 0.077584496711248396 -0.053775335626713043 0.070074618622252019 -0.0022894598821187285 -0.074011069354755321 -0.0032346917659136299 -0.0094151843806200702 0.080880037792389392 0.0395226832055263
leaf_weight=5.9484020471572867 5.5904847532510749 9.3029100596904737 7.0836679488420478 6.2404071539640489 9.1611083000898379 9.2154553532600385 9.1056036353111249 6.2850141376256925 6.2780319899320602
leaf_count=19 17 38 22 23 39 34 34 19 21
internal_value=0.0100578 0.00455642 -0.00088198 0.00833797 -0.00111036 -0.0385182 0.0235206 0.0394699 0.0602129
internal_weight=74.2111 68.6206 62.6722 53.3693 46.2856 18.3766 27.9091 18.8035 12.563
internal_count=266 249 230 192 170 73 97 63 40
is_linear=0
shrinkage=0.05


Tree=3
num_leaves=11
num_cat=0
split_feature=18 12 18 0 12 19 10 11 8 8
split_gain=10.0314 7.76636 12.0118 7.10619 10.3195 7.98107 6.9388 6.08215 4.71898 2.86464
threshold=0.11628612643093451 -0.0053965641007413445 -0.0012887753779264319 16.331900000000001 -0.0023041689573834534 -0.12424176014108089 0.41197002012974554 0.50904240901730258 1.7541850000000003 1.5951600000000001
decision_type=2 2 2 2 2 2 2 2 2 2
left_child=1 -1 3 4 -3 -5 -4 -8 9 -6
right_child=-2 2 6 5 8 -7 7 -9 -10 -11
leaf_value=0.058964022727691183 0.07421006979105696 -0.029685817758205543 -0.064491754773454688 -0.049147128273315535 0.040818605669002084 0.030405428983237157 0.014992761557730359 -0.045484174917126204 0.011724578959404555 0.08725607761751962
leaf_weight=5.9420984089374533 5.5533559769392005 5.1085832118988028 8.3608326017856616 6.9005784243345261 6.0229614078998619 5.8049943149089795 10.458646148443224 6.9002410471439353 5.5824321657419196 7.4030013680458069
leaf_count=19 17 20 35 28 20 20 37 28 20 22
internal_value=0.00957886 0.00433796 -0.00085203 0.0174612 0.0334041 -0.0128007 -0.0270708 -0.00904711 0.0503597 0.066424
internal_weight=74.0377 68.4844 62.5423 36.8226 24.117 12.7056 25.7197 17.3589 19.0084 13.426
internal_count=266 249 230 130 82 48 100 65 62 42
is_linear=0
shrinkage=0.05


Tree=4
num_leaves=11
num_cat=0
split_feature=18 12 18 7 11 19 18 18 11 10
split_gain=9.15301 7.02878 10.8671 6.83682 9.78384 6.93877 6.35842 3.7771 2.86151 6.73548
threshold=0.11628612643093451 -0.0053965641007413445 -0.0012887753779264319 -0.77285049999999988 0.49589115749104634 -0.092809442144938678 0.023466565828094591 -0.038093154569189207 0.50904240901730258 0.41197002012974554
decision_type=2 2 2 2 2 2 2 2 2 2
left_child=1 -1 3 -3 5 7 -4 -5 9 -8
right_child=-2 2 6 4 -6 -7 8 -9 -10 -11
leaf_value=0.056170522890763276 0.07116425743137432 -0.024126026528779872 -0.062347244503481551 -0.006637574872353562 -0.03330539219961641 0.074113433046700719 -0.040772568496925787 0.046034655536682567 -0.040008624840817623 0.034501282854968653
leaf_weight=5.9261081218719474 5.5027426034212104 8.0364035069942457 8.1216844320297259 7.0217275768518439 5.2973949611186972 9.7661003470420873 4.9698228389024752 6.6052894294261941 5.1871165186166754 7.3919915705919266
leaf_count=19 17 31 34 26 21 30 20 22 21 25
internal_value=0.0091285 0.00413217 -0.000810086 0.0166348 0.0280522 0.0419467 -0.0257685 0.0188937 -0.00883978 0.00423892
internal_weight=73.8264 68.3236 62.3975 36.7269 28.6905 23.3931 25.6706 13.627 17.5489 12.3618
internal_count=266 249 230 130 99 78 100 48 66 45
is_linear=0
shrinkage=0.05


Tree=5
num_leaves=11
num_cat=0
split_feature=18 8 18 18 8 6 19 9 13 19
split_gain=9.55849 6.8132 11.2933 13.3591 10.5984 6.48733 5.75578 3.9358 1.6957 0.499623
threshold=0.10658327276916914 1.5926300000000002 -0.0058640399798537404 0.023466565828094591 1.7900000000000003 7.024585000000001 -0.087971703664233389 88.877650000000017 -1.0000000180025095e-35 -0.10513012518905317
decision_type=2 2 2 2 2 2 2 2 2 2
left_child=1 6 4 8 9 -5 -1 -6 -4 -3
right_child=-2 2 3 5 7 -7 -8 -9 -10 -11
leaf_value=-0.07210338493940481 0.063117532443066698 0.075292476732116143 -0.08033456614611538 0.040864285958604363 0.022568840271655118 -0.017752345732395713 -0.0036806443757854586 -0.032535143563117867 -0.038704426514923368 0.055436789963114241
leaf_weight=5.1820545494556427 6.9231317192316046 6.4725897163152695 5.0394484251737595 9.5324075073003787 8.8720100820064527 9.3503304570913297 7.5539830774068815 5.1050616204738608 4.753269582986837 6.2058328390121442
leaf_count=22 22 20 22 32 31 36 28 20 19 20
internal_value=0.00714441 0.00145135 0.0090408 -0.0127381 0.0324701 0.0118386 -0.0315206 0.00244236 -0.0601278 0.0655735
internal_weight=74.9901 68.067 55.331 28.6755 26.6555 18.8827 12.736 13.9771 9.79272 12.6784
internal_count=272 250 200 109 91 68 50 51 41 40
is_linear=0
shrinkage=0.05


Tree=6
num_leaves=11
num_cat=0
split_feature=8 19 9 16 6 4 2 1 10 2
split_gain=8.29824 5.21645 4.88045 3.14514 4.62873 5.91981 3.98722 6.54599 10.7593 2.6756
threshold=1.5926300000000002 -0.087971703664233389 -116.07249999999998 16.352437460714416 10.389400000000002 1016.7900000000001 12.553750000000003 -0.039359999999999992 0.64470280765356425 10.796550000000002
decision_type=2 2 2 2 2 2 2 2 2 2
left_child=1 -1 -2 4 6 -6 -4 -8 -9 -7
right_child=2 -3 3 -5 5 9 7 8 -10 -11
leaf_value=-0.068684539126593419 -0.027764497814441916 -0.0034962543211371796 -0.025590020453346435 -0.013523216844290201 -0.00039511994008686267 0.03797325040211097 0.057534707146570878 -0.031216249148499822 0.048009916959947788 0.084125065153062215
leaf_weight=5.1683004051446915 6.1926639080047599 7.5547368228435499 5.8225740045309093 6.5538162291049948 5.3673604577779797 5.9553455561399442 8.0599594861269015 9.9059233814477938 7.5527449846267691 6.6438558995723724
leaf_count=22 24 28 23 25 20 20 26 39 25 20
internal_value=0.00680803 -0.0299768 0.0143501 0.0190188 0.0233441 0.0435775 0.0117452 0.020264 0.00305756 0.0623102
internal_weight=74.7773 12.723 62.0542 55.8616 49.3078 17.9666 31.3412 25.5186 17.4587 12.5992
internal_count=272 50 222 198 173 60 113 90 64 40
is_linear=0
shrinkage=0.05


Tree=7
num_leaves=11
num_cat=0
split_feature=18 4 5 8 9 5 18 4 4 19
split_gain=8.68843 5.75367 7.89135 8.33144 7.12401 6.42929 6.95987 8.523 8.54074 4.92807
threshold=0.10658327276916914 972.32800000000009 23.414450000000006 1.5951600000000001 -53.385749999999994 28.143150000000002 -0.030519778086616541 1074.8450000000003 1194.6550000000002 -0.087971703664233389
decision_type=2 2 2 2 2 2 2 2 2 2
left_child=1 4 -3 -4 -1 -5 9 -8 -9 -7
right_child=-2 2 3 5 -6 6 7 8 -10 -11
leaf_value=-0.079644226060699069 0.060217747133482269 0.058757721525774589 -0.049040053678702657 0.053525121270544311 0.0050413126550905869 0.00029313840629247999 -0.063666449736083403 0.049573905179396985 -0.026250414712058908 0.058239274964754319
leaf_weight=4.6033519357442856 6.8341012299060813 6.560273900628089 7.2771390676498404 6.7725178748369208 5.3925409168004972 7.8936730474233627 6.8106130659580328 6.0951176285743704 9.5056816786527616 6.8560062497854144
leaf_count=20 22 21 30 22 20 29 29 20 37 22
internal_value=0.00648531 0.00106654 0.00712678 0.000512675 -0.0339584 0.00872056 0.000555041 -0.0169992 0.00337359 0.0272279
internal_weight=74.601 67.7669 57.771 51.2107 9.99589 43.9336 37.1611 22.4114 15.6008 14.7497
internal_count=272 250 210 189 40 159 137 86 57 51
is_linear=0
shrinkage=0.05


Tree=8
num_leaves=11
num_cat=0
split_feature=8 19 4 12 4 19 8 7 19 19
split_gain=7.03663 4.5113 4.23912 8.81001 8.6159 16.5791 8.46061 6.30161 4.17677 1.27232
threshold=1.5926300000000002 -0.087971703664233389 1166.6200000000001 0.0073897683178588145 1040.3800000000003 0.23828824748473901 1.7247650000000003 -3.8053499999999993 0.015539036404437991 -0.18338852912102324
decision_type=2 2 2 2 2 2 2 2 2 2
left_child=1 -1 4 -4 5 6 9 -5 -6 -2
right_child=2 -3 3 7 8 -7 -8 -9 -10 -11
leaf_value=-0.063967732687588874 0.061879545389675356 -0.0031513970934382049 0.041157356207468722 0.0045511138445342696 0.027492740906535182 -0.079728354269358093 -0.022037923183455183 -0.065140409722500528 0.077862800456988096 0.031454579778932741
leaf_weight=5.1232159435749054 6.5372748076915759 7.5327595472335798 6.5545542687177685 6.5501898229122171 9.1816010326147097 4.8161562234163275 6.869619369506835 6.4255428314208958 7.4591614454984656 7.243693962693218
leaf_count=22 21 28 22 24 32 21 27 27 23 25
internal_value=0.00618854 -0.0277702 0.0131612 -0.00609227 0.0220914 0.00380868 0.0232913 -0.0299599 0.0500709 0.0458873
internal_weight=74.2938 12.656 61.6378 19.5303 42.1075 25.4667 20.6506 12.9757 16.6408 13.781
internal_count=272 50 222 73 149 94 73 51 55 46
is_linear=0
shrinkage=0.05


Tree=9
num_leaves=11
num_cat=0
split_feature=18 4 3 8 9 5 4 4 5 9
split_gain=7.69178 5.19877 7.38564 6.43951 6.25049 5.22608 5.53378 5.95645 5.4608 2.41184
threshold=0.10658327276916914 972.32800000000009 8.070940000000002 1.60362 -53.385749999999994 28.143150000000002 1016.7900000000001 1166.6200000000001 51.611200000000004 94.056100000000015
decision_type=2 2 2 2 2 2 2 2 2 2
left_child=1 4 -3 -4 -1 -5 -7 9 -9 -8
right_child=-2 2 3 5 -6 6 7 8 -10 -11
leaf_value=-0.075625906565386744 0.056912963130932651 0.055547952440872232 -0.038823021029690749 0.04972216229897642 0.0039530742027651085 -0.046483899677702174 0.056736693652329834 0.016853192626981824 -0.03868019220265892 0.012414682083009769
leaf_weight=4.5617543309926987 6.7190542370080939 6.7920587956905356 8.8118713796138746 6.4176406264305106 5.3747754693031293 5.2893745750188819 6.4677015244960803 9.3072920590639132 8.4420159161090833 5.8416484296321869
leaf_count=20 22 22 36 21 20 22 21 33 34 21
internal_value=0.00590161 0.000809239 0.00659246 1.82243e-05 -0.0325808 0.00821309 0.000676876 0.00897568 -0.00955988 0.0357028
internal_weight=74.0252 67.3061 57.3696 50.5775 9.93653 41.7657 35.348 30.0587 17.7493 12.3093
internal_count=272 250 210 188 40 152 131 109 67 42
is_linear=0
shrinkage=0.05


Tree=10
num_leaves=12
num_cat=0
split_feature=16 6 4 1 2 4 4 10 1 16 1
split_gain=9.51859 11.8446 7.47576 9.02521 5.95106 4.88502 4.70699 13.0437 8.42253 2.8162 5.07264
threshold=10.19409891176266 19.414950000000005 972.32800000000009 -0.049789499999999993 17.732800000000005 1166.6200000000001 1001.3250000000002 0.94049213160884471 0.13613450000000002 1.4008609019386415 0.053488500000000008
decision_type=2 2 2 2 2 2 2 2 2 2 2
left_child=2 -2 3 -1 6 -3 -4 8 -8 -6 -11
right_child=1 5 4 -5 9 -7 7 -9 -10 10 -12
leaf_value=0.0213729201457773 -0.075271327870521404 0.045251510599018829 0.038708916892362173 -0.072290658131251129 0.070576103837352702 -0.020969808901164805 -0.026798502668318548 -0.078698610776728906 0.059523283988349801 -0.0051202514735742329 0.059258271228969518
leaf_weight=5.6301508992910385 7.1060501039028194 4.8146066814661008 8.8213664740324038 4.7348248362541181 7.386811017990115 6.6060306876897812 5.043306887149809 4.5224899500608435 6.4267596751451492 5.3601180613040906 7.1297826021909714
leaf_count=20 31 16 30 21 23 26 20 20 21 20 23
internal_value=0.00641234 -0.0245884 0.0168443 -0.0214135 0.0257174 0.00694716 0.0093875 -0.00678596 0.0215682 0.0461035 0.0316298
internal_weight=73.5823 18.5267 55.0556 10.365 44.6906 11.4206 24.8139 15.9926 11.4701 19.8767 12.4899
internal_count=271 73 198 41 157 42 91 61 41 66 43
is_linear=0
shrinkage=0.05


Tree=11
num_leaves=12
num_cat=0
split_feature=16 6 4 1 2 16 8 6 11 1 10
split_gain=8.64047 10.7734 6.79486 8.25139 5.40761 4.55613 4.49688 6.9056 2.60188 4.62825 2.57052
threshold=10.19409891176266 19.414950000000005 972.32800000000009 -0.049789499999999993 17.732800000000005 17.289570186456853 1.8347600000000004 10.389400000000002 0.069740249924855433 0.053488500000000008 0.41197002012974554
decision_type=2 2 2 2 2 2 2 2 2 2 2
left_child=2 -2 3 -1 6 -3 7 10 -6 -10 -4
right_child=1 5 4 -5 8 -7 -8 -9 9 -11 -12
leaf_value=0.020304926126318873 -0.071997582463111512 0.038838233550100812 -0.0296645265999924 -0.069558147546107438 0.067763795251988862 -0.024428430088988581 -0.028012977926515043 0.060074753301639243 -0.004862885430941058 0.056724344158054212 0.018176593438165523
leaf_weight=5.629968985915184 7.0588574260473278 5.588258430361746 4.995537564158445 4.6762592345476133 7.3106181025505093 5.7983487397432327 6.1621897667646399 7.085176244378089 5.3615696281194669 7.0771864950656891 6.4111453890800476
leaf_count=20 31 19 20 21 23 23 25 23 20 23 23
internal_value=0.00612875 -0.0234652 0.0161064 -0.0204688 0.0245957 0.00662125 0.00897871 0.0213057 0.0440911 0.0301779 -0.00277534
internal_weight=73.1551 18.4455 54.7097 10.3062 44.4034 11.3866 24.654 18.4919 19.7494 12.4388 11.4067
internal_count=271 73 198 41 157 42 91 66 66 43 43
is_linear=0
shrinkage=0.05


Tree=12
num_leaves=11
num_cat=0
split_feature=16 6 18 18 8 2 8 16 18 18
split_gain=7.84375 9.82786 5.00297 6.08791 5.98431 5.73408 4.21616 4.12276 3.1596 2.05096
threshold=10.19409891176266 19.414950000000005 0.085894210619473679 -0.0058640399798537404 1.5926300000000002 13.157400000000001 1.7900000000000003 17.289570186456853 0.023466565828094591 -0.038093154569189207
decision_type=2 2 2 2 2 2 2 2 2 2
left_child=2 -2 3 4 -1 -5 9 -3 -7 -6
right_child=1 7 -4 5 6 8 -8 -9 -10 -11
leaf_value=-0.017701418143597016 -0.069023087282926332 0.037004448973691505 0.050363995740990278 -0.054884402191867444 0.033475852301751985 -0.025354843496940845 0.0088196563450729567 -0.02324622785605214 0.026375322209510523 0.07360047114154343
leaf_weight=6.6827283948659923 6.996455758810046 5.5723303854465467 8.6089539080858213 5.7724796384573009 6.0440649986267099 4.9419125467538816 8.283149912953375 5.7888100892305374 7.3298877477645874 6.7319856733083734
leaf_count=26 31 19 29 25 21 20 30 23 26 21
internal_value=0.00585646 -0.022404 0.015394 0.00881872 0.0235228 -0.0137879 0.0366045 0.00630509 0.00554334 0.0546184
internal_weight=72.7528 18.3576 54.3952 45.7862 27.7419 18.0443 21.0592 11.3611 12.2718 12.7761
internal_count=271 73 198 169 98 71 72 42 46 42
is_linear=0
shrinkage=0.05


Tree=13
num_leaves=11
num_cat=0
split_feature=16 6 4 1 16 3 4 7 16 8
split_gain=7.12209 8.98636 6.17615 7.30515 3.73229 3.40884 5.33449 4.61776 5.42779 2.757
threshold=10.19409891176266 19.414950000000005 972.32800000000009 -0.049789499999999993 17.289570186456853 7.6745600000000005 1041.9450000000004 3.2923650000000007 6.0433290177333561 1.7365450000000002
decision_type=2 2 2 2 2 2 2 2 2 2
left_child=2 -2 3 -1 -3 -4 9 8 -8 -7
right_child=1 4 5 -5 -6 6 7 -9 -10 -11
leaf_value=0.018057541130795027 -0.066301699737971759 0.03527625282024998 0.055853638947946642 -0.066992520614747197 -0.022125393563742574 0.010215308847940571 0.015949735729274467 0.003182072060514283 0.076611044214663693 -0.036266832866898274
leaf_weight=5.5902982354164124 6.9213387519121197 5.5535324513912183 6.6392784714698783 4.6041339784860593 5.7782294303178787 7.9336923807859403 6.9147158116102236 9.188228636980055 7.9012152105569839 5.3354809433221817
leaf_count=20 31 19 22 21 23 29 25 34 25 22
internal_value=0.00559546 -0.0214119 0.0147064 -0.0203538 0.00600632 0.0228458 0.0169663 0.0310299 0.0482999 -0.00847497
internal_weight=72.3601 18.2531 54.107 10.1944 11.3318 43.9126 37.2733 24.0042 14.8159 13.2692
internal_count=271 73 198 41 42 157 135 84 50 51
is_linear=0
shrinkage=0.05


Tree=14
num_leaves=10
num_cat=0
split_feature=16 3 4 4 2 18 8 5 16
split_gain=6.47019 6.55851 5.60944 13.7904 4.75806 4.51562 10.4487 4.40649 2.56187
threshold=10.19409891176266 48.251950000000001 972.32800000000009 956.05300000000011 17.732800000000005 0.069325759910558796 1.7541850000000003 30.834950000000003 2.9832228121680044
decision_type=2 2 2 2 2 2 2 2 2
left_child=2 -2 3 -1 5 6 7 -4 -6
right_child=1 -3 4 -5 8 -7 -8 -9 -10
leaf_value=0.034925751970132576 -0.053646945870517271 0.0067798073820804607 -0.01862596448375553 -0.082108128540447869 0.061230234292325429 0.046619013920626715 -0.066373842986855475 0.039945566561306697 0.024530931695138772
leaf_weight=5.4131103456020337 8.1813081651926058 9.9535571336746198 5.1437392085790696 4.704727903008461 8.3275256305933016 5.5625607073307028 5.0227966010570517 8.5466817915439588 11.085736647248266
leaf_count=19 36 37 20 22 27 19 22 30 39
internal_value=0.00534759 -0.0204809 0.0140527 -0.0194942 0.0218218 0.00706604 -0.0046912 0.0179392 0.0402735
internal_weight=71.9417 18.1349 53.8069 10.1178 43.689 24.2758 18.7132 13.6904 19.4133
internal_count=271 73 198 41 157 91 72 50 66
is_linear=0
shrinkage=0.05


Tree=15
num_leaves=11
num_cat=0
split_feature=18 5 4 4 19 11 4 3 4 2
split_gain=11.3644 5.29648 6.50622 7.05913 6.93546 6.79853 5.97816 8.26064 7.61584 1.04404
threshold=0.10658327276916914 19.964850000000002 984.26950000000011 1006.8450000000001 -0.23310647475338478 -0.17645777721973632 1026.6200000000001 29.734150000000003 1240.0700000000004 17.732800000000005
decision_type=2 2 2 2 2 2 2 2 2 2
left_child=1 -1 5 -4 -5 -3 -6 9 -9 -8
right_child=-2 2 3 4 6 -7 7 8 -10 -11
leaf_value=0.047255323108210748 0.06964895422444202 -0.0023989685993886655 0.053699904703373227 -0.053995957115227616 -0.044151775408397147 -0.081895362617049161 0.02892159559541187 0.021349258345555774 -0.042927607716692108 0.058774783704541415
leaf_weight=4.9721277952194205 6.007571041584014 5.4501520991325378 5.6859402358531943 6.3083355724811545 5.6930551230907431 5.3094082623720151 5.6100130677223223 9.7187547534704226 8.7640892565250379 6.1276111751794815
leaf_count=17 20 21 19 27 25 25 20 35 36 20
internal_value=0.00391269 -0.00229281 -0.00649208 0.00139889 -0.00564439 -0.0416272 0.00284873 0.0117029 -0.00912918 0.0445064
internal_weight=69.6471 63.6395 58.6674 47.9078 42.2219 10.7596 35.9135 30.2205 18.4828 11.7376
internal_count=265 245 228 182 163 46 136 111 71 40
is_linear=0
shrinkage=0.05


Tree=16
num_leaves=11
num_cat=0
split_feature=18 5 4 12 1 8 12 11 8 10
split_gain=10.5058 4.8117 5.93959 6.5149 7.46058 7.00724 8.42164 6.33825 5.96424 0.994189
threshold=0.10658327276916914 19.964850000000002 984.26950000000011 0.016901300047966018 0.34321950000000007 1.7900000000000003 0.0073897683178588145 -0.17645777721973632 1.5926300000000002 0.69651770190553264
decision_type=2 2 2 2 2 2 2 2 2 2
left_child=1 -1 7 5 9 8 -7 -3 -4 -5
right_child=-2 2 3 4 -6 6 -8 -9 -10 -11
leaf_value=0.045185306046047126 0.067711456400469147 -0.0022785429730368518 -0.0070405698143124378 -0.069589274043525079 0.010736641190167533 0.028792373912026395 -0.052171793533527328 -0.079428402681709656 0.0567201514312922 -0.036620453599289816
leaf_weight=4.9407160431146613 5.8738958835601798 5.4512605667114258 5.3505760282278123 4.8349010050296801 8.6460603475570661 6.3353676050901395 6.5144073367118835 5.203273192048071 11.660738602280615 4.3386027365922928
leaf_count=17 20 21 21 21 32 22 28 25 39 19
internal_value=0.00374592 -0.00219199 -0.00620463 0.00133724 -0.022588 0.0156146 -0.0122538 -0.0399556 0.0366655 -0.0539967
internal_weight=69.1498 63.2759 58.3352 47.6807 17.8196 29.8611 12.8498 10.6545 17.0113 9.1735
internal_count=265 245 228 182 72 110 50 46 60 40
is_linear=0
shrinkage=0.05


Tree=17
num_leaves=11
num_cat=0
split_feature=18 4 4 10 9 9 18 1 7 8
split_gain=9.72563 3.91668 6.81769 8.7164 10.0907 6.99323 6.78644 5.43223 2.91118 1.07228
threshold=0.10658327276916914 972.32800000000009 1001.3250000000002 0.67509980200199371 -56.677499999999988 88.082850000000022 0.0056623740955296107 -0.0086174999999999984 4.289880000000001 1.7232300000000003
decision_type=2 2 2 2 2 2 2 2 2 2
left_child=1 -1 7 5 -5 6 -4 -3 -7 -6
right_child=-2 2 3 4 9 8 -8 -9 -10 -11
leaf_value=-0.033731788794493865 0.06591832318856021 -8.7471221447541311e-05 0.072714304244176492 0.022136561288809427 -0.042327258761850096 0.005429082449317022 0.0037323798367515505 0.069460881900066371 -0.045826609354818262 -0.072575899174852118
leaf_weight=8.4662541598081571 5.7355159223079673 5.2093711644411087 6.6054430305957812 5.5653570294380215 5.1885104328393918 6.2776205986738187 7.7470563054084778 6.0898937582969648 4.9584174901247025 6.7299607694149017
leaf_count=37 20 20 21 20 23 24 29 20 20 31
internal_value=0.00359143 -0.00209745 0.00282836 -0.00623999 -0.0334509 0.0123524 0.0354799 0.0373966 -0.0171898 -0.0594077
internal_weight=68.5734 62.8379 54.3716 43.0724 17.4838 25.5885 14.3525 11.2993 11.236 11.9185
internal_count=265 245 208 168 74 94 50 40 44 54
is_linear=0
shrinkage=0.05


Tree=18
num_leaves=11
num_cat=0
split_feature=18 5 4 10 19 18 8 0 12 18
split_gain=9.0141 3.68598 4.18918 6.51245 6.32025 4.61899 3.26375 2.68631 1.92792 1.54465
threshold=0.10658327276916914 20.633350000000004 984.26950000000011 -0.35179877534879161 -0.16333335108161209 -0.0058640399798537404 1.856025 15.618550000000001 0.015399556314850878 0.037161870984628871
decision_type=2 2 2 2 2 2 2 2 2 2
left_child=1 -1 3 -3 8 7 -7 -6 -4 -8
right_child=-2 2 4 -5 5 6 9 -9 -10 -11
leaf_value=0.03501001080818001 0.06425091465866066 0.0029934610269818709 -0.0092008986483863176 -0.078231775161856643 0.044717764080221489 0.019077914970198256 -0.04506388898606916 0.0047393952438233239 -0.049963989346333781 -0.0061926979808252253
leaf_weight=6.0716808736324301 5.5937515497207633 5.2035233676433563 5.3079502284526807 4.6937566101551038 10.681097313761706 6.9058412313461401 5.0558046996593458 6.9269391000270835 6.395755261182785 5.1683152168989182
leaf_count=22 20 20 21 23 37 25 22 27 28 20
internal_value=0.00344576 -0.00200409 -0.00599312 -0.0355274 0.000300978 0.0110074 -0.0074776 0.0289904 -0.0314768 -0.0254144
internal_weight=68.0044 62.4107 56.339 9.89728 46.4417 34.738 17.13 17.608 11.7037 10.2241
internal_count=265 245 223 43 180 131 67 64 49 42
is_linear=0
shrinkage=0.05


Tree=19
num_leaves=10
num_cat=0
split_feature=18 4 5 10 5 6 0 4 6
split_gain=8.36557 3.39869 7.55396 6.92108 5.20919 10.1065 3.30639 2.81937 1.74318
threshold=0.10658327276916914 972.32800000000009 23.414450000000006 1.3524972028953377 51.611200000000004 22.521500000000003 12.213750000000003 1074.8450000000003 11.768750000000002
decision_type=2 2 2 2 2 2 2 2 2
left_child=1 -1 -3 4 6 -6 7 -4 -8
right_child=-2 2 3 -5 5 -7 8 -9 -10
leaf_value=-0.031634060062259321 0.062693412040172453 0.051267420111627396 0.012520277665115112 -0.053045748302311284 -0.075790610423117813 0.0108939466449589 -0.022733583335425717 0.056342469792796834 0.017033798457973575
leaf_weight=8.3302753269672376 5.4497488737106314 6.9654163420200339 8.3111463785171527 6.3559641391038886 5.3160855025053015 9.1498013734817487 5.9151114672422391 6.5731045454740515 5.1592192947864532
leaf_count=37 20 24 31 29 24 34 24 22 20
internal_value=0.00329748 -0.00191697 0.002689 -0.00454413 0.0030818 -0.0209619 0.0164806 0.0318728 -0.00420708
internal_weight=67.5259 62.0761 53.7458 46.7804 40.4245 14.4659 25.9586 14.8843 11.0743
internal_count=265 245 208 184 155 58 97 53 44
is_linear=0
shrinkage=0.05


Tree=20
num_leaves=11
num_cat=0
split_feature=0 4 10 7 2 12 5 8 19 19
split_gain=7.23274 7.29684 9.17278 5.87947 7.05943 5.73043 3.48313 3.07535 1.93749 1.67526
threshold=-4.7904849999999994 982.52700000000016 0.67509980200199371 2.6787500000000004 19.941200000000006 0.015399556314850878 22.272100000000005 1.7247650000000003 0.022445423589723349 -1.0000000180025095e-35
decision_type=2 2 2 2 2 2 2 2 2 2
left_child=-1 6 3 4 8 -4 -2 -5 -3 -7
right_child=1 2 5 7 -6 9 -8 -9 -10 -11
leaf_value=0.056008068695837569 -0.014834601029843717 0.038487251857833131 0.0056256789005079992 -0.035829962801626335 -0.012252512696696867 -0.067567121254403228 -0.07711991066328637 0.013571455712987757 0.075275964782204621 -0.026284153527349086
leaf_weight=5.8766973018646231 4.867087393999098 7.2106602191925067 9.4404404461383837 4.8667237162590018 5.0022099167108527 5.4075585305690765 4.1657533347606659 8.9324968755245191 7.1057466119527817 4.5044453889131528
leaf_count=20 20 25 37 20 20 26 21 34 23 19
internal_value=0.00301265 -0.00205112 0.00509457 0.0210754 0.0388807 -0.0222535 -0.0435593 -0.00385149 0.0567468 -0.0488063
internal_weight=67.3798 61.5031 52.4703 33.1178 19.3186 19.3524 9.03284 13.7992 14.3164 9.912
internal_count=265 245 204 122 68 82 41 54 48 45
is_linear=0
shrinkage=0.05


Tree=21
num_leaves=11
num_cat=0
split_feature=0 9 7 18 5 4 5 9 7 2
split_gain=6.6092 9.64034 10.827 7.34572 4.219 6.30061 6.40698 7.45543 3.16978 0.574669
threshold=-4.7904849999999994 -116.07249999999998 -5.7207099999999995 0.083791008555923044 22.272100000000005 1054.0500000000002 48.085650000000008 88.877650000000017 1.7377300000000002 15.550800000000001
decision_type=2 2 2 2 2 2 2 2 2 2
left_child=-1 -2 -3 4 -4 8 -7 -8 9 -6
right_child=1 2 3 -5 5 6 7 -9 -10 -11
leaf_value=0.05385109552034914 -0.0699351942489113 0.070077702809252157 0.02861145319429987 0.045773433265643579 -0.074607065915944473 0.047197366167112259 0.019634383604374597 -0.046395913333865592 -0.017098450522080533 -0.04836005488563748
leaf_weight=5.8082314431667319 4.8060418814420691 5.5600646734237662 5.8913154155015937 6.6016557663679114 4.4197517484426481 5.4621233493089703 8.1530256271362322 8.9871720075607282 7.2753458321094504 3.9485541582107544
leaf_count=20 22 18 22 25 23 19 30 38 30 18
internal_value=0.00288223 -0.00196252 0.00384006 -0.00341838 -0.0107761 -0.0168432 4.02355e-05 -0.0149875 -0.0412368 -0.0622225
internal_weight=66.9133 61.1051 56.299 50.7389 44.1373 38.246 22.6023 17.1402 15.6437 8.36831
internal_count=265 245 223 205 180 158 87 68 71 41
is_linear=0
shrinkage=0.05


Tree=22
num_leaves=11
num_cat=0
split_feature=0 4 10 12 7 2 5 8 19 19
split_gain=6.04433 6.53166 7.8449 5.31931 5.20004 6.33196 3.12056 2.6987 1.79701 1.51926
threshold=-4.7904849999999994 982.52700000000016 0.67509980200199371 0.015399556314850878 2.6787500000000004 19.941200000000006 22.272100000000005 1.7247650000000003 0.022445423589723349 -1.0000000180025095e-35
decision_type=2 2 2 2 2 2 2 2 2 2
left_child=-1 6 4 -4 5 8 -2 -6 -3 -5
right_child=1 2 3 9 7 -7 -8 -9 -10 -11
leaf_value=0.051818024712727007 -0.014590444474288755 0.036254864976632578 0.0062822713152402582 -0.064768385718834212 -0.033653281839196345 -0.011779947252770548 -0.074273708445380643 0.012717281649348195 0.072013486266562718 -0.0251058201433359
leaf_weight=5.7361572235822669 4.8387388885021192 7.1529363095760363 9.3823303431272524 5.241496741771698 4.8631044179201117 4.9823851287364951 4.0011006295681 8.8436585366725904 6.9050832688808441 4.4763481020927411
leaf_count=20 20 25 37 26 20 20 21 34 23 19
internal_value=0.00275868 -0.00187842 0.00489476 -0.0205717 0.0197484 0.0366534 -0.0416044 -0.00373481 0.053819 -0.0464985
internal_weight=66.4233 60.6872 51.8473 19.1002 32.7472 19.0404 8.83984 13.7068 14.058 9.71784
internal_count=265 245 204 82 122 68 41 54 48 45
is_linear=0
shrinkage=0.05


Tree=23
num_leaves=11
num_cat=0
split_feature=0 9 7 10 4 19 5 0 5 1
split_gain=5.53153 8.6606 9.68934 5.72849 7.12272 6.08723 5.54983 3.18562 2.15937 2.47155
threshold=-4.7904849999999994 -116.07249999999998 -5.7207099999999995 0.67509980200199371 982.52700000000016 0.022445423589723349 34.008450000000003 15.879250000000001 48.382500000000007 0.20660900000000001
decision_type=2 2 2 2 2 2 2 2 2 2
left_child=-1 -2 -3 4 -4 8 7 -5 -6 -10
right_child=1 2 3 6 5 -7 -8 -9 9 -11
leaf_value=0.049894628406562752 -0.06652338407405059 0.066803036104529964 -0.035048149960834746 0.016520115257363077 0.027987563329892162 0.058722526743064975 -0.077299506293347794 -0.038039699197895314 -0.023091778938493845 0.021783575174948468
leaf_weight=5.661337435245513 4.7600000947713843 5.4906002581119528 7.5692389905452719 5.535317197442053 6.9829841405153337 7.3362548798322669 4.2634192109107962 5.1781688034534454 8.2589572817087156 4.8819574564695349
leaf_count=20 22 18 35 21 25 26 21 25 33 19
internal_value=0.00264116 -0.00179846 0.00375303 -0.00316975 0.00789579 0.0197331 -0.0290509 -0.00985038 0.00551927 -0.00642022
internal_weight=65.9182 60.2569 55.4969 50.0063 35.0294 27.4602 14.9769 10.7135 20.1239 13.1409
internal_count=265 245 223 205 138 103 67 46 77 52
is_linear=0
shrinkage=0.05


Tree=24
num_leaves=10
num_cat=0
split_feature=0 9 18 19 9 5 18 11 1
split_gain=5.35355 7.91394 5.81868 5.08078 3.51492 5.19371 3.76687 7.78522 3.55571
threshold=-5.2769799999999991 -116.07249999999998 0.085894210619473679 0.34682353894793189 -37.407699999999991 23.414450000000006 -0.032032188276842614 0.47341690748323745 0.17530250000000003
decision_type=2 2 2 2 2 2 2 2 2
left_child=-1 -2 3 4 -3 -6 7 -7 -8
right_child=1 2 -4 -5 5 6 8 -9 -10
leaf_value=0.051998443412056929 -0.063785685730650826 0.022217295064415065 0.049579371672259065 0.038105116300510278 0.025588502600617066 0.018474643163943889 -0.063497638695444933 -0.059028699794031393 -0.011487953067734622
leaf_weight=5.0472881197929373 4.7171685248613349 7.6667804270982733 6.1392369270324698 6.7987191379070273 6.3872652649879447 9.9601399302482552 8.3735807240009326 4.8025229573249826 5.4090109169483194
leaf_count=18 22 30 24 26 24 37 39 23 22
internal_value=0.00253388 -0.00160958 0.00367147 -0.00203401 -0.00844009 -0.0151686 -0.0242884 -0.0067384 -0.0430863
internal_weight=65.3017 60.2544 55.5373 49.398 42.5993 34.9325 28.5453 14.7627 13.7826
internal_count=265 247 225 201 175 145 121 60 61
is_linear=0
shrinkage=0.05


Tree=25
num_leaves=10
num_cat=0
split_feature=9 11 4 11 7 7 7 3 1
split_gain=4.71606 4.97878 8.43594 7.12782 5.13954 7.34449 4.49558 2.74915 2.60246
threshold=-116.07249999999998 -0.20898418919702075 982.52700000000016 0.47341690748323745 1.7377300000000002 -1.4553699999999996 2.6787500000000004 29.494100000000003 0.12638550000000001
decision_type=2 2 2 2 2 2 2 2 2
left_child=-1 -2 -3 6 5 -5 8 -8 -4
right_child=1 2 3 4 -6 -7 7 -9 -10
leaf_value=-0.030089050927402296 0.066998286050816369 -0.04150680442345428 0.076793617860913835 0.010666081442393276 0.032913068797103623 -0.06113208481224626 0.039156535032215431 -0.0052629789456587099 0.034745179524550328
leaf_weight=6.7775749117135993 4.1130163073539725 6.9689821600913993 6.1785349398851421 7.8733193427324304 6.1141412407159796 6.5043896287679681 5.8777766972780219 8.5505552142858487 9.0989494621753675
leaf_count=30 14 33 21 30 22 33 21 35 35
internal_value=0.00948802 0.0138653 0.0100425 0.0171991 -0.0054858 -0.021815 0.0328477 0.0128325 0.0517504
internal_weight=68.0572 61.2797 57.1666 50.1977 20.4919 14.3777 29.7058 14.4283 15.2775
internal_count=274 244 230 197 85 63 112 56 56
is_linear=0
shrinkage=0.05


Tree=26
num_leaves=11
num_cat=0
split_feature=9 18 18 0 8 1 9 8 8 12
split_gain=4.27918 4.62423 4.49974 5.02731 4.72089 4.68394 4.63918 3.80917 3.21392 1.12666
threshold=-116.07249999999998 0.034408857290033741 -0.0058640399798537404 16.331900000000001 1.5926300000000002 0.19275650000000003 88.082850000000022 1.7424550000000003 1.7900000000000003 0.016368119044264873
decision_type=2 2 2 2 2 2 2 2 2 2
left_child=-1 2 3 4 -2 -4 -5 -3 -6 -9
right_child=1 7 5 6 8 -7 -8 9 -10 -11
leaf_value=-0.02860868152978048 -0.0097597486585487541 0.00019629409170734578 -0.049126413489801152 0.018192693532840649 0.058391164721797298 0.015656348189938982 -0.047237684952721792 0.067617126321624699 0.011332562216516455 0.035948964548873086
leaf_weight=6.7720070779323569 6.0175775289535549 5.1021616160869625 6.6753414273262006 5.582725912332533 10.522458851337435 4.7939856946468353 5.2630336284637451 5.801168739795683 5.5377157777547827 5.444474995136261
leaf_count=30 25 21 32 22 37 19 25 21 21 21
internal_value=0.00909107 0.0132942 0.00492235 0.0143179 0.0280121 -0.0220483 -0.0135582 0.0360283 0.0421649 0.0522853
internal_weight=67.5127 60.7406 44.3928 32.9235 22.0778 11.4693 10.8458 16.3478 16.0602 11.2456
internal_count=274 244 181 130 83 51 47 63 58 42
is_linear=0
shrinkage=0.05


Tree=27
num_leaves=11
num_cat=0
split_feature=8 11 4 1 10 8 12 3 11 18
split_gain=3.94841 4.29593 5.78094 3.93291 12.1184 3.85321 3.42477 3.47658 2.51662 1.07846
threshold=1.5846000000000002 -0.20122352598054169 986.33850000000018 0.25767750000000006 0.67509980200199371 1.5178200000000002 0.017061422942843543 29.494100000000003 0.47770254036614473 0.013561084010796145
decision_type=2 2 2 2 2 2 2 2 2 2
left_child=5 -2 -3 6 -5 -1 7 8 9 -4
right_child=1 2 3 4 -6 -7 -8 -9 -10 -11
leaf_value=0.014494992454528736 0.055463029954778253 -0.03957134622934641 0.073596144546658013 0.026036403469334488 -0.075868436645610021 -0.049158557186368607 -0.0096905035420943985 0.0070053091107877986 0.017309627327853024 0.043649713724167927
leaf_weight=4.2738284766674024 5.5562212616205207 5.4380701929330817 5.6120581775903755 8.6454773396253568 4.4032540321350089 5.3581850975751877 6.1424382328987113 9.3770301192998868 5.7244771867990485 6.4754368662834167
leaf_count=18 20 27 20 32 22 26 27 36 22 24
internal_value=0.00870784 0.0136809 0.00920078 0.0149193 -0.00835107 -0.0209148 0.0240293 0.0316471 0.0446197 0.0575534
internal_weight=67.0065 57.3745 51.8182 46.3802 13.0487 9.63201 33.3314 27.189 17.812 12.0875
internal_count=274 230 210 183 54 44 129 102 66 44
is_linear=0
shrinkage=0.05


Tree=28
num_leaves=11
num_cat=0
split_feature=9 11 0 11 7 7 18 7 18 3
split_gain=3.93166 4.20632 6.55554 5.15354 4.49857 6.42105 2.63068 3.77467 4.09334 2.42684
threshold=-116.07249999999998 -0.20898418919702075 -2.7393949999999996 0.47341690748323745 1.7377300000000002 -1.4553699999999996 0.058742155111785051 2.6787500000000004 -0.02289200626817511 22.827800000000003
decision_type=2 2 2 2 2 2 2 2 2 2
left_child=-1 -2 -3 6 5 -5 7 9 -9 -4
right_child=1 2 3 4 -6 -7 -8 8 -10 -11
leaf_value=-0.027925973996009424 0.062687665729420194 -0.047640822477292982 0.011049073286504891 0.0092858492773077554 0.03046114701352148 -0.058634147542761465 0.059501468773266078 0.02562490903142204 -0.032130254479407414 0.055243789293217285
leaf_weight=6.7147359102964392 3.891630381345748 4.6916795969009391 4.927970737218863 7.7823598086833963 6.0532721728086463 6.2940809726715097 5.1603057831525794 7.0975936502218246 5.4034641832113248 8.4030225872993451
leaf_count=30 14 23 22 30 22 33 21 26 23 30
internal_value=0.00834844 0.012428 0.00892365 0.0141148 -0.00558342 -0.0210836 0.0269089 0.0203981 0.000660785 0.0389067
internal_weight=66.4201 59.7054 55.8137 51.1221 20.1297 14.0764 30.9924 25.8321 12.5011 13.331
internal_count=274 244 230 207 85 63 122 101 49 52
is_linear=0
shrinkage=0.05


Tree=29
num_leaves=12
num_cat=0
split_feature=16 4 4 10 9 4 5 4 10 8 19
split_gain=3.83828 6.86214 6.00391 6.95949 9.88931 4.70251 3.0894 2.54075 5.70588 3.95819 1.43513
threshold=-3.064523583716054 982.52700000000016 1001.3250000000002 0.67509980200199371 -60.880949999999991 961.74750000000006 31.879100000000005 1230.7400000000002 0.32510846126398507 1.7247650000000003 -0.1286136891824167
decision_type=2 2 2 2 2 2 2 2 2 2 2
left_child=-1 5 -3 7 -5 -2 -6 9 -9 -4 -11
right_child=1 2 3 4 6 -7 -8 8 -10 10 -12
leaf_value=0.052516645956328149 2.4218831174517319e-05 0.062688255527906772 0.003792798453670013 0.033913616609524341 -0.022773399906628959 -0.075987297648675053 -0.073985367971154736 0.034366427291871109 -0.03639842911882088 0.031540507161709773 0.067535275320817822
leaf_weight=4.5121024250984183 4.0653461664915067 5.1312412917613974 7.4984912723302903 5.9326815456151989 6.7803753912448865 4.0736597329378128 5.2060228437185287 6.221290171146391 5.2544538974761963 5.1782582849264136 5.9523673057556143
leaf_count=17 18 19 30 22 32 22 27 23 23 20 21
internal_value=0.00800999 0.00473368 0.0112801 0.00578725 -0.018884 -0.0380204 -0.0450162 0.0204721 0.00196498 0.0318727 0.0507896
internal_weight=65.8063 61.2942 53.1552 48.0239 17.9191 8.13901 11.9864 30.1049 11.4757 18.6291 11.1306
internal_count=274 257 217 198 81 40 59 117 46 71 41
is_linear=0
shrinkage=0.05


Tree=30
num_leaves=11
num_cat=0
split_feature=1 4 16 4 8 4 4 5 16 10
split_gain=2.38501 8.43521 4.19264 10.2397 2.5774 4.52386 5.94543 6.72873 4.03546 1.80284
threshold=-0.061174999999999993 980.86900000000014 1.4008609019386415 1309.3700000000001 2.1860350000000004 1194.6550000000002 1074.8450000000003 33.365000000000002 8.1764503133801743 1.5093987600104397
decision_type=2 2 2 2 2 2 2 2 2 2
left_child=-1 -2 -3 4 5 6 7 8 -4 -10
right_child=1 2 3 -5 -6 -7 -8 -9 9 -11
leaf_value=0.03333764570359659 -0.051804142971179905 0.044720435721069665 0.045053353361881779 -0.066546986764912358 0.040478885142991895 -0.037128087303495101 0.046731427070094179 -0.044813029101474347 -0.02765267519574939 0.014518654293649225
leaf_weight=5.0687932670116416 7.5614319443702689 5.8064236789941779 6.5923903733491995 5.1967261284589759 5.2797369956970206 5.876471370458602 8.3928150683641416 6.6643997430801383 4.7509847879409772 5.4318270981311798
leaf_count=20 39 21 25 23 20 27 33 30 22 22
internal_value=0.000370661 -0.00234411 0.00458266 -0.000254015 0.00775988 0.00317879 0.0106197 -0.0023105 0.0145748 -0.00515718
internal_weight=66.622 61.5532 53.9918 48.1854 42.9886 37.7089 31.8324 23.4396 16.7752 10.1828
internal_count=282 262 223 202 179 159 132 99 69 44
is_linear=0
shrinkage=0.05


Tree=31
num_leaves=11
num_cat=0
split_feature=7 4 12 4 1 10 1 3 16 16
split_gain=2.17326 3.62129 8.9381 8.32136 5.22336 6.07786 8.57405 6.60317 2.72126 1.59981
threshold=-5.7207099999999995 1194.6550000000002 0.0059231072779797169 1074.8450000000003 0.18032050000000002 0.41197002012974554 -0.061174999999999993 8.3163750000000025 7.6876416588293859 10.156295720033125
decision_type=2 2 2 2 2 2 2 2 2 2
left_child=-1 3 -3 4 5 6 -2 -8 -7 -5
right_child=1 2 -4 9 -6 8 7 -9 -10 -11
leaf_value=0.026155908548778375 0.031804093749325225 0.023709230739606055 -0.060430756161635929 0.065004416227027517 -0.062105540084784555 0.047503243486928477 -0.0020086117242762189 -0.079798836831557723 0.004622131764431681 0.02523546444681396
leaf_weight=7.2664625793695441 5.0480792671442023 5.3371910303831083 7.7243494689464569 4.7190320789813978 3.9116033464670172 6.1078812628984442 4.7458637952804619 6.4159873872995377 9.3842232972383481 5.4486269950866699
leaf_count=28 20 20 36 20 21 23 22 33 38 21
internal_value=0.00035828 -0.00282745 -0.0260496 0.00379789 -0.00759216 -0.00086594 -0.0222685 -0.0467235 0.0215283 0.0436931
internal_weight=66.1093 58.8428 13.0615 45.7813 35.6136 31.702 16.2099 11.1619 15.4921 10.1677
internal_count=282 254 56 198 157 136 75 55 61 41
is_linear=0
shrinkage=0.05


Tree=32
num_leaves=11
num_cat=0
split_feature=5 10 4 4 16 9 19 19 4 5
split_gain=2.0977 5.2597 4.82469 5.36361 7.39371 6.35953 5.70738 3.91444 3.0192 2.3663
threshold=23.414450000000006 -0.20448668776762943 1040.3800000000003 1194.6550000000002 2.9832228121680044 -37.407699999999991 0.29750388063159544 -0.015890579990298966 1004.1800000000001 48.382500000000007
decision_type=2 2 2 2 2 2 2 2 2 2
left_child=1 -1 7 6 -5 -6 9 8 -2 -4
right_child=2 -3 3 4 5 -7 -8 -9 -10 -11
leaf_value=-0.014828502440523928 0.016363504456394975 0.053082562333490471 0.02891915133011326 0.036796694338038394 0.002095298697138872 -0.069550297118354018 0.066393697004568195 -0.053813741953702414 -0.039628665715979478 -0.013060748158154823
leaf_weight=5.5874471515417099 6.1603968888521212 5.8219623342156392 6.4011967554688471 5.1578850895166424 6.0733851045370111 6.320836573839185 5.7561267539858809 7.1710829585790625 3.9520872235298157 7.0581395477056503
leaf_count=26 27 21 24 19 24 31 22 36 21 31
internal_value=0.000343472 0.019825 -0.00376879 0.00647325 -0.0135082 -0.0344427 0.024725 -0.0255568 -0.00551895 0.00690469
internal_weight=65.4605 11.4094 54.0511 36.7676 17.5521 12.3942 19.2155 17.2836 10.1125 13.4593
internal_count=282 47 235 151 74 55 77 84 48 55
is_linear=0
shrinkage=0.05


Tree=33
num_leaves=10
num_cat=0
split_feature=6 10 2 6 5 3 8 3 4
split_gain=1.96432 7.23458 3.36101 3.03563 4.83283 2.26665 3.53075 4.12942 3.07332
threshold=10.389400000000002 0.53872597281294576 12.553750000000003 14.735500000000002 64.114050000000006 30.666650000000001 1.6745500000000002 12.314900000000003 1032.2550000000003
decision_type=2 2 2 2 2 2 2 2 2
left_child=2 -2 -1 -3 -5 6 7 -4 -8
right_child=1 3 5 4 -6 -7 8 -9 -10
leaf_value=-0.040939757571699951 0.066536895698093734 0.029672368167226928 -0.032500230366426068 -0.053898671450345527 0.0088153089065323414 -0.021527853268042796 0.00184996919113419 0.022576496954100286 0.051477704672301533
leaf_weight=5.9470328688621512 4.8189285993576076 5.2651034444570568 8.3517527282238024 4.9968758597969991 7.9743609577417374 9.3536309599876386 6.2907125204801542 5.7437661066651335 6.188528373837471
leaf_count=29 21 21 39 26 33 39 29 22 23
internal_value=0.000330376 0.0120509 -0.00612256 -0.00234699 -0.0153438 -0.000359451 0.00709128 -0.0100571 0.0264607
internal_weight=64.9307 23.0553 41.8754 18.2363 12.9712 35.9284 26.5748 14.0955 12.4792
internal_count=282 101 181 80 59 152 113 61 52
is_linear=0
shrinkage=0.05


Tree=34
num_leaves=11
num_cat=0
split_feature=5 10 4 4 16 9 8 5 3 9
split_gain=1.98423 4.70715 4.04033 4.61909 6.78675 5.73031 3.62889 4.90164 2.98156 2.31608
threshold=23.414450000000006 -0.20448668776762943 1040.3800000000003 1194.6550000000002 2.9832228121680044 -37.407699999999991 1.8325850000000001 48.382500000000007 9.7316350000000025 42.148050000000005
decision_type=2 2 2 2 2 2 2 2 2 2
left_child=1 -1 8 6 -5 -6 7 -4 -2 -10
right_child=2 -3 3 4 5 -7 -8 -9 9 -11
leaf_value=-0.013413391659142741 0.0019564142030171847 0.051016007003645142 0.031022097606563204 0.035635728750702395 0.0014937606721574452 -0.066964478111737599 0.048300035560464048 -0.038166304558971721 -0.011620585359454309 -0.060094437406745749
leaf_weight=5.5822488069534302 6.7783689796924618 5.7599267885088903 6.5281896591186541 5.0892757326364544 6.0533067137002954 6.1751072704791996 8.0475277304649335 4.2111312001943588 4.0989162474870664 6.1788815632462502
leaf_count=26 30 21 25 19 24 31 32 20 20 34
internal_value=0.00032037 0.019306 -0.00373033 0.00574388 -0.0128834 -0.0330763 0.0229145 0.00389176 -0.0237854 -0.0407624
internal_weight=64.5029 11.3422 53.1607 36.1045 17.3177 12.2284 18.7868 10.7393 17.0562 10.2778
internal_count=282 47 235 151 74 55 77 45 84 54
is_linear=0
shrinkage=0.05


Tree=35
num_leaves=11
num_cat=0
split_feature=8 8 1 2 10 11 5 12 6 12
split_gain=2.86526 5.08981 2.79485 5.13585 3.10203 3.32702 3.62586 2.5365 2.89557 1.74025
threshold=1.5926300000000002 1.5046150000000003 0.25767750000000006 12.553750000000003 1.1305172720703973 -0.20122352598054169 42.912700000000008 0.0069762205081913709 12.329250000000002 0.0059231072779797169
decision_type=2 2 2 2 2 2 2 2 2 2
left_child=1 -1 4 -4 5 -2 9 -8 -9 -7
right_child=2 -3 3 -5 -6 6 7 8 -10 -11
leaf_value=0.020500597748908885 0.04585411144121785 -0.050878351616118589 0.01927441714962436 -0.049911569557873521 0.041516931710222665 -0.045628040807051629 0.03939569942829485 -0.029733181531357972 0.027621659157358799 -0.0020710164224732957
leaf_weight=4.4094616994261724 4.7845503836870149 5.759732261300087 5.7086603194475156 5.0598482489585876 8.8668478131294233 4.7383682578802198 6.3375264108180991 4.5638449639081937 4.2496168315410614 4.4437471777200699
leaf_count=18 18 30 22 25 35 26 24 21 19 18
internal_value=0.00421407 -0.0199277 0.00924971 -0.0132343 0.0156239 0.00773898 0.000244506 0.01527 -0.0020782 -0.0245483
internal_weight=58.9222 10.1692 48.753 10.7685 37.9845 29.1177 24.3331 15.151 8.81346 9.18212
internal_count=256 48 208 47 161 126 108 64 40 44
is_linear=0
shrinkage=0.05


Tree=36
num_leaves=11
num_cat=0
split_feature=9 7 1 1 16 2 1 6 8 9
split_gain=2.61335 2.69324 3.28398 5.55688 3.19596 3.36287 2.43453 3.98444 3.06003 2.74555
threshold=-116.07249999999998 5.1620550000000014 -0.037244999999999993 1.0000000180025095e-35 11.08257654646575 12.553750000000003 0.055907000000000005 10.389400000000002 1.7630800000000002 48.838550000000005
decision_type=2 2 2 2 2 2 2 2 2 2
left_child=-1 2 -2 -4 6 -6 -5 9 -9 -8
right_child=1 -3 3 4 5 -7 7 8 -10 -11
leaf_value=-0.026787462872099179 0.042154004779443949 -0.022227058615079589 -0.048808960434185214 0.059269634775749903 0.014806802001257774 -0.047409282238240119 0.020151886766921413 0.058903905677039452 0.0019098780118651758 -0.028801247468608467
leaf_weight=6.1529612690210334 7.5269720554351798 6.5876926034688941 4.1224206835031501 3.6789527833461788 4.7968410700559598 3.9690325558185577 5.5897330045700091 6.4445903748273832 3.7113400250673294 5.8742464780807495
leaf_count=28 30 28 22 14 19 21 22 26 19 27
internal_value=0.00403557 0.0076617 0.0119689 0.00601914 0.0126543 -0.0133635 0.0216693 0.015271 0.0380763 -0.00493214
internal_weight=58.4548 52.3018 45.7141 38.1872 34.0647 8.76587 25.2989 21.6199 10.1559 11.464
internal_count=256 228 200 170 148 40 108 94 45 49
is_linear=0
shrinkage=0.05


Tree=37
num_leaves=11
num_cat=0
split_feature=8 8 5 2 4 8 19 6 2 8
split_gain=2.4068 4.69776 2.34658 6.11796 2.59532 3.57366 3.37339 2.9671 2.15338 1.74211
threshold=1.5926300000000002 1.5046150000000003 51.611200000000004 12.553750000000003 1332.6550000000002 1.7365450000000002 0.056370785448445544 10.389400000000002 18.858000000000004 1.6679150000000003
decision_type=2 2 2 2 2 2 2 2 2 2
left_child=1 -1 4 -4 5 7 8 9 -7 -2
right_child=2 -3 3 -5 -6 6 -8 -9 -10 -11
leaf_value=0.020388398923607453 -0.010813854374029506 -0.048688248979005325 0.019868172718583786 -0.054040339514264658 0.048835794605159508 -0.014757981882203675 -0.046714611750959326 0.051988733684896031 0.033098330888093608 0.027851151975125811
leaf_weight=4.3780728504061681 5.594827547669416 5.621930256485939 6.6641948819160444 4.8288732543587685 4.8365102708339682 5.1943163126707059 4.2474631965160361 6.2585203126072875 4.2936477735638618 6.0782385766506195
leaf_count=18 25 30 26 24 18 26 21 25 18 25
internal_value=0.00386884 -0.018446 0.00851809 -0.0111849 0.0147215 0.00951126 -0.00968034 0.0242118 0.00689873 0.00931926
internal_weight=57.9966 10 47.9966 11.4931 36.5035 31.667 13.7354 17.9316 9.48796 11.6731
internal_count=256 48 208 50 158 140 65 75 44 50
is_linear=0
shrinkage=0.05


Tree=38
num_leaves=10
num_cat=0
split_feature=8 8 3 2 4 5 19 18 7
split_gain=2.19134 4.29856 2.17706 6.33211 4.05733 3.26039 2.86267 2.4384 2.09223
threshold=1.5926300000000002 1.5046150000000003 30.666650000000001 21.249050000000004 1074.8450000000003 29.278700000000004 0.044894192996678524 -0.017005293933945061 2.8948150000000004
decision_type=2 2 2 2 2 2 2 2 2
left_child=1 -1 4 7 5 6 8 -4 -2
right_child=2 -3 3 -5 -6 -7 -8 -9 -10
leaf_value=0.019421946684994838 0.053753451957823856 -0.046900827363857478 -0.010093381859353365 -0.057263369005463909 0.059296517315318542 -0.020382743545993152 -0.0088962266024571451 0.03060674495556457 0.010308724049777347
leaf_weight=4.3664364069700223 6.3768128231167882 5.5463251620531082 7.1389693915843973 4.4341305047273627 4.7131510078907004 6.9200691729784003 5.5859310179948798 7.5953811109066018 4.9012211859226227
leaf_count=18 26 30 31 21 20 34 25 31 20
internal_value=0.00370292 -0.0176865 0.00815117 -0.00487778 0.016915 0.00851653 0.0203752 0.010887 0.0348732
internal_weight=57.5784 9.91276 47.6657 19.1685 28.4972 23.784 16.864 14.7344 11.278
internal_count=256 48 208 83 125 105 71 62 46
is_linear=0
shrinkage=0.05


end of trees

feature_importances:
sma_200=60
natr=39
natr_trend=37
return_365=27
return_ratio_90_180=24
trix=23
di_minus_change=23
cci_20=22
return_90_risk_adj=21
di_minus_14=19
macd_histogram=18
return_180=15
return_ratio_90_365=15
return_55=14
sma_return_ratio=14
return_90=12
trix_direction=1

parameters:
[boosting: gbdt]
[objective: binary]
[metric: auc]
[tree_learner: serial]
[device_type: gpu]
[data_sample_strategy: bagging]
[data: ]
[valid: ]
[num_iterations: 1000]
[learning_rate: 0.05]
[num_leaves: 31]
[num_threads: 0]
[seed: 0]
[deterministic: 0]
[force_col_wise: 1]
[force_row_wise: 0]
[histogram_pool_size: -1]
[max_depth: -1]
[min_data_in_leaf: 20]
[min_sum_hessian_in_leaf: 0.001]
[bagging_fraction: 0.8]
[pos_bagging_fraction: 1]
[neg_bagging_fraction: 1]
[bagging_freq: 5]
[bagging_seed: 3]
[bagging_by_query: 0]
[feature_fraction: 0.9]
[feature_fraction_bynode: 1]
[feature_fraction_seed: 2]
[extra_trees: 0]
[extra_seed: 6]
[early_stopping_round: 0]
[early_stopping_min_delta: 0]
[first_metric_only: 0]
[max_delta_step: 0]
[lambda_l1: 0]
[lambda_l2: 0]
[linear_lambda: 0]
[min_gain_to_split: 0]
[drop_rate: 0.1]
[max_drop: 50]
[skip_drop: 0.5]
[xgboost_dart_mode: 0]
[uniform_drop: 0]
[drop_seed: 4]
[top_rate: 0.2]
[other_rate: 0.1]
[min_data_per_group: 100]
[max_cat_threshold: 32]
[cat_l2: 10]
[cat_smooth: 10]
[max_cat_to_onehot: 4]
[top_k: 20]
[monotone_constraints: ]
[monotone_constraints_method: basic]
[monotone_penalty: 0]
[feature_contri: ]
[forcedsplits_filename: ]
[refit_decay_rate: 0.9]
[cegb_tradeoff: 1]
[cegb_penalty_split: 0]
[cegb_penalty_feature_lazy: ]
[cegb_penalty_feature_coupled: ]
[path_smooth: 0]
[interaction_constraints: ]
[verbosity: -1]
[saved_feature_importance_type: 0]
[use_quantized_grad: 0]
[num_grad_quant_bins: 4]
[quant_train_renew_leaf: 0]
[stochastic_rounding: 1]
[linear_tree: 0]
[max_bin: 255]
[max_bin_by_feature: ]
[min_data_in_bin: 3]
[bin_construct_sample_cnt: 200000]
[data_random_seed: 1]
[is_enable_sparse: 1]
[enable_bundle: 1]
[use_missing: 1]
[zero_as_missing: 0]
[feature_pre_filter: 1]
[pre_partition: 0]
[two_round: 0]
[header: 0]
[label_column: ]
[weight_column: ]
[group_column: ]
[ignore_column: ]
[categorical_feature: ]
[forcedbins_filename: ]
[precise_float_parser: 0]
[parser_config_file: ]
[objective_seed: 5]
[num_class: 1]
[is_unbalance: 0]
[scale_pos_weight: 1.23333]
[sigmoid: 1]
[boost_from_average: 1]
[reg_sqrt: 0]
[alpha: 0.9]
[fair_c: 1]
[poisson_max_delta_step: 0.7]
[tweedie_variance_power: 1.5]
[lambdarank_truncation_level: 30]
[lambdarank_norm: 1]
[label_gain: ]
[lambdarank_position_bias_regularization: 0]
[eval_at: ]
[multi_error_top_k: 1]
[auc_mu_weights: ]
[num_machines: 1]
[local_listen_port: 12400]
[time_out: 120]
[machine_list_filename: ]
[machines: ]
[gpu_platform_id: 0]
[gpu_device_id: 0]
[gpu_use_dp: 0]
[num_gpu: 1]

end of parameters

pandas_categorical:[]
